digraph Tree {
node [shape=box, style="filled, rounded", color="black", fontname=helvetica] ;
edge [fontname=helvetica] ;
0 [label="X[2] <= 0.06\ngini = 0.66\nsamples = 14623\nvalue = [11283, 2737, 2859, 6271]", fillcolor="#f7dac4"] ;
1 [label="X[0] <= 394.5\ngini = 0.71\nsamples = 8909\nvalue = [4072, 2092, 2378, 5558]", fillcolor="#f9e2fb"] ;
0 -> 1 [labeldistance=2.5, labelangle=45, headlabel="True"] ;
2 [label="X[5] <= 0.06\ngini = 0.51\nsamples = 3510\nvalue = [363, 692, 794, 3732]", fillcolor="#e685ef"] ;
1 -> 2 ;
3 [label="X[4] <= -0.5\ngini = 0.34\nsamples = 2596\nvalue = [54, 288, 496, 3312]", fillcolor="#e066eb"] ;
2 -> 3 ;
4 [label="X[0] <= 47.5\ngini = 0.2\nsamples = 2068\nvalue = [4, 48, 314, 2974]", fillcolor="#dc51e8"] ;
3 -> 4 ;
5 [label="X[3] <= 0.39\ngini = 0.59\nsamples = 234\nvalue = [4, 48, 207, 125]", fillcolor="#c0e0f7"] ;
4 -> 5 ;
6 [label="X[0] <= 9.5\ngini = 0.4\nsamples = 80\nvalue = [3, 1, 31, 101]", fillcolor="#e47bee"] ;
5 -> 6 ;
7 [label="X[4] <= -2.5\ngini = 0.36\nsamples = 12\nvalue = [3, 1, 14, 0]", fillcolor="#6eb7ec"] ;
6 -> 7 ;
8 [label="X[2] <= 0.0\ngini = 0.57\nsamples = 8\nvalue = [3, 1, 5, 0]", fillcolor="#bddef6"] ;
7 -> 8 ;
9 [label="gini = 0.0\nsamples = 1\nvalue = [2, 0, 0, 0]", fillcolor="#e58139"] ;
8 -> 9 ;
10 [label="X[1] <= -3.85\ngini = 0.45\nsamples = 7\nvalue = [1, 1, 5, 0]", fillcolor="#7bbeee"] ;
8 -> 10 ;
11 [label="gini = 0.0\nsamples = 1\nvalue = [1, 0, 0, 0]", fillcolor="#e58139"] ;
10 -> 11 ;
12 [label="X[5] <= 0.01\ngini = 0.28\nsamples = 6\nvalue = [0, 1, 5, 0]", fillcolor="#61b1ea"] ;
10 -> 12 ;
13 [label="X[0] <= 5.5\ngini = 0.44\nsamples = 3\nvalue = [0, 1, 2, 0]", fillcolor="#9ccef2"] ;
12 -> 13 ;
14 [label="gini = 0.0\nsamples = 2\nvalue = [0, 0, 2, 0]", fillcolor="#399de5"] ;
13 -> 14 ;
15 [label="gini = 0.0\nsamples = 1\nvalue = [0, 1, 0, 0]", fillcolor="#47e539"] ;
13 -> 15 ;
16 [label="gini = 0.0\nsamples = 3\nvalue = [0, 0, 3, 0]", fillcolor="#399de5"] ;
12 -> 16 ;
17 [label="gini = 0.0\nsamples = 4\nvalue = [0, 0, 9, 0]", fillcolor="#399de5"] ;
7 -> 17 ;
18 [label="X[0] <= 25.5\ngini = 0.25\nsamples = 68\nvalue = [0, 0, 17, 101]", fillcolor="#de5ae9"] ;
6 -> 18 ;
19 [label="X[3] <= 0.15\ngini = 0.42\nsamples = 31\nvalue = [0, 0, 16, 38]", fillcolor="#e88cf0"] ;
18 -> 19 ;
20 [label="X[2] <= 0.01\ngini = 0.46\nsamples = 15\nvalue = [0, 0, 16, 9]", fillcolor="#a8d4f4"] ;
19 -> 20 ;
21 [label="gini = 0.0\nsamples = 7\nvalue = [0, 0, 15, 0]", fillcolor="#399de5"] ;
20 -> 21 ;
22 [label="X[0] <= 15.5\ngini = 0.18\nsamples = 8\nvalue = [0, 0, 1, 9]", fillcolor="#db4fe8"] ;
20 -> 22 ;
23 [label="gini = 0.0\nsamples = 1\nvalue = [0, 0, 1, 0]", fillcolor="#399de5"] ;
22 -> 23 ;
24 [label="gini = 0.0\nsamples = 7\nvalue = [0, 0, 0, 9]", fillcolor="#d739e5"] ;
22 -> 24 ;
25 [label="gini = 0.0\nsamples = 16\nvalue = [0, 0, 0, 29]", fillcolor="#d739e5"] ;
19 -> 25 ;
26 [label="X[3] <= 0.15\ngini = 0.03\nsamples = 37\nvalue = [0, 0, 1, 63]", fillcolor="#d83ce5"] ;
18 -> 26 ;
27 [label="X[4] <= -3.5\ngini = 0.08\nsamples = 10\nvalue = [0, 0, 1, 22]", fillcolor="#d942e6"] ;
26 -> 27 ;
28 [label="X[0] <= 35.0\ngini = 0.24\nsamples = 3\nvalue = [0, 0, 1, 6]", fillcolor="#de5ae9"] ;
27 -> 28 ;
29 [label="gini = 0.0\nsamples = 1\nvalue = [0, 0, 1, 0]", fillcolor="#399de5"] ;
28 -> 29 ;
30 [label="gini = 0.0\nsamples = 2\nvalue = [0, 0, 0, 6]", fillcolor="#d739e5"] ;
28 -> 30 ;
31 [label="gini = 0.0\nsamples = 7\nvalue = [0, 0, 0, 16]", fillcolor="#d739e5"] ;
27 -> 31 ;
32 [label="gini = 0.0\nsamples = 27\nvalue = [0, 0, 0, 41]", fillcolor="#d739e5"] ;
26 -> 32 ;
33 [label="X[0] <= 18.5\ngini = 0.45\nsamples = 154\nvalue = [1, 47, 176, 24]", fillcolor="#80c0ee"] ;
5 -> 33 ;
34 [label="X[3] <= 0.54\ngini = 0.49\nsamples = 46\nvalue = [1, 44, 27, 0]", fillcolor="#b9f5b4"] ;
33 -> 34 ;
35 [label="X[2] <= 0.01\ngini = 0.28\nsamples = 16\nvalue = [0, 4, 20, 0]", fillcolor="#61b1ea"] ;
34 -> 35 ;
36 [label="gini = 0.0\nsamples = 12\nvalue = [0, 0, 18, 0]", fillcolor="#399de5"] ;
35 -> 36 ;
37 [label="X[0] <= 6.5\ngini = 0.44\nsamples = 4\nvalue = [0, 4, 2, 0]", fillcolor="#a3f29c"] ;
35 -> 37 ;
38 [label="gini = 0.0\nsamples = 2\nvalue = [0, 4, 0, 0]", fillcolor="#47e539"] ;
37 -> 38 ;
39 [label="gini = 0.0\nsamples = 2\nvalue = [0, 0, 2, 0]", fillcolor="#399de5"] ;
37 -> 39 ;
40 [label="X[3] <= 0.65\ngini = 0.28\nsamples = 30\nvalue = [1, 40, 7, 0]", fillcolor="#6bea60"] ;
34 -> 40 ;
41 [label="X[0] <= 6.5\ngini = 0.43\nsamples = 14\nvalue = [0, 15, 7, 0]", fillcolor="#9df195"] ;
40 -> 41 ;
42 [label="gini = 0.0\nsamples = 6\nvalue = [0, 12, 0, 0]", fillcolor="#47e539"] ;
41 -> 42 ;
43 [label="X[5] <= 0.0\ngini = 0.42\nsamples = 8\nvalue = [0, 3, 7, 0]", fillcolor="#8ec7f0"] ;
41 -> 43 ;
44 [label="gini = 0.0\nsamples = 3\nvalue = [0, 0, 4, 0]", fillcolor="#399de5"] ;
43 -> 44 ;
45 [label="X[0] <= 13.5\ngini = 0.5\nsamples = 5\nvalue = [0, 3, 3, 0]", fillcolor="#ffffff"] ;
43 -> 45 ;
46 [label="gini = 0.0\nsamples = 2\nvalue = [0, 3, 0, 0]", fillcolor="#47e539"] ;
45 -> 46 ;
47 [label="gini = 0.0\nsamples = 3\nvalue = [0, 0, 3, 0]", fillcolor="#399de5"] ;
45 -> 47 ;
48 [label="X[0] <= 2.5\ngini = 0.07\nsamples = 16\nvalue = [1, 25, 0, 0]", fillcolor="#4ee641"] ;
40 -> 48 ;
49 [label="gini = 0.0\nsamples = 1\nvalue = [1, 0, 0, 0]", fillcolor="#e58139"] ;
48 -> 49 ;
50 [label="gini = 0.0\nsamples = 15\nvalue = [0, 25, 0, 0]", fillcolor="#47e539"] ;
48 -> 50 ;
51 [label="X[4] <= -1.5\ngini = 0.26\nsamples = 108\nvalue = [0, 3, 149, 24]", fillcolor="#5caeea"] ;
33 -> 51 ;
52 [label="X[3] <= 0.54\ngini = 0.3\nsamples = 80\nvalue = [0, 1, 105, 22]", fillcolor="#64b2eb"] ;
51 -> 52 ;
53 [label="X[1] <= -3.61\ngini = 0.49\nsamples = 28\nvalue = [0, 0, 30, 22]", fillcolor="#cae5f8"] ;
52 -> 53 ;
54 [label="X[0] <= 26.5\ngini = 0.47\nsamples = 13\nvalue = [0, 0, 9, 15]", fillcolor="#efb0f5"] ;
53 -> 54 ;
55 [label="gini = 0.0\nsamples = 4\nvalue = [0, 0, 9, 0]", fillcolor="#399de5"] ;
54 -> 55 ;
56 [label="gini = 0.0\nsamples = 9\nvalue = [0, 0, 0, 15]", fillcolor="#d739e5"] ;
54 -> 56 ;
57 [label="X[4] <= -2.5\ngini = 0.38\nsamples = 15\nvalue = [0, 0, 21, 7]", fillcolor="#7bbeee"] ;
53 -> 57 ;
58 [label="X[0] <= 34.5\ngini = 0.21\nsamples = 9\nvalue = [0, 0, 15, 2]", fillcolor="#53aae8"] ;
57 -> 58 ;
59 [label="gini = 0.0\nsamples = 7\nvalue = [0, 0, 15, 0]", fillcolor="#399de5"] ;
58 -> 59 ;
60 [label="gini = 0.0\nsamples = 2\nvalue = [0, 0, 0, 2]", fillcolor="#d739e5"] ;
58 -> 60 ;
61 [label="X[0] <= 32.5\ngini = 0.5\nsamples = 6\nvalue = [0, 0, 6, 5]", fillcolor="#deeffb"] ;
57 -> 61 ;
62 [label="gini = 0.0\nsamples = 4\nvalue = [0, 0, 6, 0]", fillcolor="#399de5"] ;
61 -> 62 ;
63 [label="gini = 0.0\nsamples = 2\nvalue = [0, 0, 0, 5]", fillcolor="#d739e5"] ;
61 -> 63 ;
64 [label="X[0] <= 20.5\ngini = 0.03\nsamples = 52\nvalue = [0, 1, 75, 0]", fillcolor="#3c9ee5"] ;
52 -> 64 ;
65 [label="gini = 0.0\nsamples = 1\nvalue = [0, 1, 0, 0]", fillcolor="#47e539"] ;
64 -> 65 ;
66 [label="gini = 0.0\nsamples = 51\nvalue = [0, 0, 75, 0]", fillcolor="#399de5"] ;
64 -> 66 ;
67 [label="X[3] <= 0.54\ngini = 0.16\nsamples = 28\nvalue = [0, 2, 44, 2]", fillcolor="#4aa6e7"] ;
51 -> 67 ;
68 [label="X[1] <= -3.35\ngini = 0.32\nsamples = 7\nvalue = [0, 0, 8, 2]", fillcolor="#6ab6ec"] ;
67 -> 68 ;
69 [label="X[0] <= 25.0\ngini = 0.41\nsamples = 5\nvalue = [0, 0, 5, 2]", fillcolor="#88c4ef"] ;
68 -> 69 ;
70 [label="gini = 0.0\nsamples = 3\nvalue = [0, 0, 5, 0]", fillcolor="#399de5"] ;
69 -> 70 ;
71 [label="gini = 0.0\nsamples = 2\nvalue = [0, 0, 0, 2]", fillcolor="#d739e5"] ;
69 -> 71 ;
72 [label="gini = 0.0\nsamples = 2\nvalue = [0, 0, 3, 0]", fillcolor="#399de5"] ;
68 -> 72 ;
73 [label="X[1] <= -3.35\ngini = 0.1\nsamples = 21\nvalue = [0, 2, 36, 0]", fillcolor="#44a2e6"] ;
67 -> 73 ;
74 [label="gini = 0.0\nsamples = 18\nvalue = [0, 0, 34, 0]", fillcolor="#399de5"] ;
73 -> 74 ;
75 [label="X[0] <= 29.0\ngini = 0.5\nsamples = 3\nvalue = [0, 2, 2, 0]", fillcolor="#ffffff"] ;
73 -> 75 ;
76 [label="gini = 0.0\nsamples = 1\nvalue = [0, 2, 0, 0]", fillcolor="#47e539"] ;
75 -> 76 ;
77 [label="gini = 0.0\nsamples = 2\nvalue = [0, 0, 2, 0]", fillcolor="#399de5"] ;
75 -> 77 ;
78 [label="X[0] <= 69.5\ngini = 0.07\nsamples = 1834\nvalue = [0, 0, 107, 2849]", fillcolor="#d940e6"] ;
4 -> 78 ;
79 [label="X[3] <= 0.65\ngini = 0.29\nsamples = 104\nvalue = [0, 0, 30, 140]", fillcolor="#e063eb"] ;
78 -> 79 ;
80 [label="X[0] <= 53.5\ngini = 0.1\nsamples = 81\nvalue = [0, 0, 7, 125]", fillcolor="#d944e6"] ;
79 -> 80 ;
81 [label="X[3] <= 0.54\ngini = 0.33\nsamples = 20\nvalue = [0, 0, 7, 27]", fillcolor="#e16cec"] ;
80 -> 81 ;
82 [label="X[4] <= -1.5\ngini = 0.2\nsamples = 16\nvalue = [0, 0, 3, 23]", fillcolor="#dc53e8"] ;
81 -> 82 ;
83 [label="gini = 0.0\nsamples = 10\nvalue = [0, 0, 0, 17]", fillcolor="#d739e5"] ;
82 -> 83 ;
84 [label="X[3] <= 0.15\ngini = 0.44\nsamples = 6\nvalue = [0, 0, 3, 6]", fillcolor="#eb9cf2"] ;
82 -> 84 ;
85 [label="gini = 0.0\nsamples = 2\nvalue = [0, 0, 3, 0]", fillcolor="#399de5"] ;
84 -> 85 ;
86 [label="gini = 0.0\nsamples = 4\nvalue = [0, 0, 0, 6]", fillcolor="#d739e5"] ;
84 -> 86 ;
87 [label="X[4] <= -1.5\ngini = 0.5\nsamples = 4\nvalue = [0, 0, 4, 4]", fillcolor="#ffffff"] ;
81 -> 87 ;
88 [label="X[2] <= 0.0\ngini = 0.32\nsamples = 3\nvalue = [0, 0, 4, 1]", fillcolor="#6ab6ec"] ;
87 -> 88 ;
89 [label="gini = 0.0\nsamples = 1\nvalue = [0, 0, 2, 0]", fillcolor="#399de5"] ;
88 -> 89 ;
90 [label="X[4] <= -2.5\ngini = 0.44\nsamples = 2\nvalue = [0, 0, 2, 1]", fillcolor="#9ccef2"] ;
88 -> 90 ;
91 [label="gini = 0.0\nsamples = 1\nvalue = [0, 0, 2, 0]", fillcolor="#399de5"] ;
90 -> 91 ;
92 [label="gini = 0.0\nsamples = 1\nvalue = [0, 0, 0, 1]", fillcolor="#d739e5"] ;
90 -> 92 ;
93 [label="gini = 0.0\nsamples = 1\nvalue = [0, 0, 0, 3]", fillcolor="#d739e5"] ;
87 -> 93 ;
94 [label="gini = 0.0\nsamples = 61\nvalue = [0, 0, 0, 98]", fillcolor="#d739e5"] ;
80 -> 94 ;
95 [label="X[5] <= 0.01\ngini = 0.48\nsamples = 23\nvalue = [0, 0, 23, 15]", fillcolor="#baddf6"] ;
79 -> 95 ;
96 [label="X[1] <= -3.46\ngini = 0.16\nsamples = 15\nvalue = [0, 0, 21, 2]", fillcolor="#4ca6e7"] ;
95 -> 96 ;
97 [label="X[0] <= 67.0\ngini = 0.32\nsamples = 9\nvalue = [0, 0, 8, 2]", fillcolor="#6ab6ec"] ;
96 -> 97 ;
98 [label="X[2] <= 0.01\ngini = 0.2\nsamples = 8\nvalue = [0, 0, 8, 1]", fillcolor="#52a9e8"] ;
97 -> 98 ;
99 [label="gini = 0.0\nsamples = 6\nvalue = [0, 0, 7, 0]", fillcolor="#399de5"] ;
98 -> 99 ;
100 [label="X[0] <= 57.5\ngini = 0.5\nsamples = 2\nvalue = [0, 0, 1, 1]", fillcolor="#ffffff"] ;
98 -> 100 ;
101 [label="gini = 0.0\nsamples = 1\nvalue = [0, 0, 1, 0]", fillcolor="#399de5"] ;
100 -> 101 ;
102 [label="gini = 0.0\nsamples = 1\nvalue = [0, 0, 0, 1]", fillcolor="#d739e5"] ;
100 -> 102 ;
103 [label="gini = 0.0\nsamples = 1\nvalue = [0, 0, 0, 1]", fillcolor="#d739e5"] ;
97 -> 103 ;
104 [label="gini = 0.0\nsamples = 6\nvalue = [0, 0, 13, 0]", fillcolor="#399de5"] ;
96 -> 104 ;
105 [label="X[0] <= 56.5\ngini = 0.23\nsamples = 8\nvalue = [0, 0, 2, 13]", fillcolor="#dd57e9"] ;
95 -> 105 ;
106 [label="gini = 0.0\nsamples = 2\nvalue = [0, 0, 2, 0]", fillcolor="#399de5"] ;
105 -> 106 ;
107 [label="gini = 0.0\nsamples = 6\nvalue = [0, 0, 0, 13]", fillcolor="#d739e5"] ;
105 -> 107 ;
108 [label="X[3] <= 0.65\ngini = 0.05\nsamples = 1730\nvalue = [0, 0, 77, 2709]", fillcolor="#d83fe6"] ;
78 -> 108 ;
109 [label="X[3] <= 0.54\ngini = 0.01\nsamples = 1335\nvalue = [0, 0, 15, 2114]", fillcolor="#d73ae5"] ;
108 -> 109 ;
110 [label="gini = 0.0\nsamples = 981\nvalue = [0, 0, 0, 1580]", fillcolor="#d739e5"] ;
109 -> 110 ;
111 [label="X[0] <= 322.5\ngini = 0.05\nsamples = 354\nvalue = [0, 0, 15, 534]", fillcolor="#d83fe6"] ;
109 -> 111 ;
112 [label="gini = 0.0\nsamples = 275\nvalue = [0, 0, 0, 435]", fillcolor="#d739e5"] ;
111 -> 112 ;
113 [label="X[2] <= 0.01\ngini = 0.23\nsamples = 79\nvalue = [0, 0, 15, 99]", fillcolor="#dd57e9"] ;
111 -> 113 ;
114 [label="gini = 0.0\nsamples = 48\nvalue = [0, 0, 0, 64]", fillcolor="#d739e5"] ;
113 -> 114 ;
115 [label="X[5] <= 0.01\ngini = 0.42\nsamples = 31\nvalue = [0, 0, 15, 35]", fillcolor="#e88ef0"] ;
113 -> 115 ;
116 [label="gini = 0.0\nsamples = 21\nvalue = [0, 0, 0, 35]", fillcolor="#d739e5"] ;
115 -> 116 ;
117 [label="gini = 0.0\nsamples = 10\nvalue = [0, 0, 15, 0]", fillcolor="#399de5"] ;
115 -> 117 ;
118 [label="X[0] <= 334.5\ngini = 0.17\nsamples = 395\nvalue = [0, 0, 62, 595]", fillcolor="#db4ee8"] ;
108 -> 118 ;
119 [label="X[0] <= 291.5\ngini = 0.07\nsamples = 338\nvalue = [0, 0, 20, 546]", fillcolor="#d840e6"] ;
118 -> 119 ;
120 [label="X[4] <= -1.5\ngini = 0.03\nsamples = 285\nvalue = [0, 0, 7, 475]", fillcolor="#d83ce5"] ;
119 -> 120 ;
121 [label="gini = 0.0\nsamples = 224\nvalue = [0, 0, 0, 375]", fillcolor="#d739e5"] ;
120 -> 121 ;
122 [label="X[0] <= 77.0\ngini = 0.12\nsamples = 61\nvalue = [0, 0, 7, 100]", fillcolor="#da47e7"] ;
120 -> 122 ;
123 [label="gini = 0.0\nsamples = 3\nvalue = [0, 0, 6, 0]", fillcolor="#399de5"] ;
122 -> 123 ;
124 [label="X[0] <= 278.5\ngini = 0.02\nsamples = 58\nvalue = [0, 0, 1, 100]", fillcolor="#d73be5"] ;
122 -> 124 ;
125 [label="gini = 0.0\nsamples = 55\nvalue = [0, 0, 0, 96]", fillcolor="#d739e5"] ;
124 -> 125 ;
126 [label="X[2] <= 0.01\ngini = 0.32\nsamples = 3\nvalue = [0, 0, 1, 4]", fillcolor="#e16aec"] ;
124 -> 126 ;
127 [label="gini = 0.0\nsamples = 2\nvalue = [0, 0, 0, 4]", fillcolor="#d739e5"] ;
126 -> 127 ;
128 [label="gini = 0.0\nsamples = 1\nvalue = [0, 0, 1, 0]", fillcolor="#399de5"] ;
126 -> 128 ;
129 [label="X[2] <= 0.01\ngini = 0.26\nsamples = 53\nvalue = [0, 0, 13, 71]", fillcolor="#de5dea"] ;
119 -> 129 ;
130 [label="gini = 0.0\nsamples = 35\nvalue = [0, 0, 0, 57]", fillcolor="#d739e5"] ;
129 -> 130 ;
131 [label="X[5] <= 0.01\ngini = 0.5\nsamples = 18\nvalue = [0, 0, 13, 14]", fillcolor="#fcf1fd"] ;
129 -> 131 ;
132 [label="gini = 0.0\nsamples = 9\nvalue = [0, 0, 0, 14]", fillcolor="#d739e5"] ;
131 -> 132 ;
133 [label="gini = 0.0\nsamples = 9\nvalue = [0, 0, 13, 0]", fillcolor="#399de5"] ;
131 -> 133 ;
134 [label="X[5] <= 0.01\ngini = 0.5\nsamples = 57\nvalue = [0, 0, 42, 49]", fillcolor="#f9e3fb"] ;
118 -> 134 ;
135 [label="X[2] <= 0.01\ngini = 0.34\nsamples = 38\nvalue = [0, 0, 13, 48]", fillcolor="#e26fec"] ;
134 -> 135 ;
136 [label="gini = 0.0\nsamples = 27\nvalue = [0, 0, 0, 48]", fillcolor="#d739e5"] ;
135 -> 136 ;
137 [label="gini = 0.0\nsamples = 11\nvalue = [0, 0, 13, 0]", fillcolor="#399de5"] ;
135 -> 137 ;
138 [label="X[1] <= -3.85\ngini = 0.06\nsamples = 19\nvalue = [0, 0, 29, 1]", fillcolor="#40a0e6"] ;
134 -> 138 ;
139 [label="X[4] <= -1.5\ngini = 0.24\nsamples = 5\nvalue = [0, 0, 6, 1]", fillcolor="#5aade9"] ;
138 -> 139 ;
140 [label="gini = 0.0\nsamples = 4\nvalue = [0, 0, 6, 0]", fillcolor="#399de5"] ;
139 -> 140 ;
141 [label="gini = 0.0\nsamples = 1\nvalue = [0, 0, 0, 1]", fillcolor="#d739e5"] ;
139 -> 141 ;
142 [label="gini = 0.0\nsamples = 14\nvalue = [0, 0, 23, 0]", fillcolor="#399de5"] ;
138 -> 142 ;
143 [label="X[0] <= 226.0\ngini = 0.68\nsamples = 528\nvalue = [50, 240, 182, 338]", fillcolor="#f8ddfb"] ;
3 -> 143 ;
144 [label="X[0] <= 175.5\ngini = 0.46\nsamples = 286\nvalue = [3, 12, 127, 291]", fillcolor="#ea95f1"] ;
143 -> 144 ;
145 [label="X[3] <= 0.65\ngini = 0.31\nsamples = 222\nvalue = [3, 11, 45, 268]", fillcolor="#df62ea"] ;
144 -> 145 ;
146 [label="X[0] <= 16.0\ngini = 0.22\nsamples = 162\nvalue = [2, 8, 18, 206]", fillcolor="#dc53e8"] ;
145 -> 146 ;
147 [label="X[0] <= 4.5\ngini = 0.58\nsamples = 14\nvalue = [2, 8, 10, 0]", fillcolor="#deeffb"] ;
146 -> 147 ;
148 [label="X[0] <= 1.5\ngini = 0.41\nsamples = 3\nvalue = [2, 5, 0, 0]", fillcolor="#91ef88"] ;
147 -> 148 ;
149 [label="gini = 0.0\nsamples = 1\nvalue = [2, 0, 0, 0]", fillcolor="#e58139"] ;
148 -> 149 ;
150 [label="gini = 0.0\nsamples = 2\nvalue = [0, 5, 0, 0]", fillcolor="#47e539"] ;
148 -> 150 ;
151 [label="X[5] <= 0.0\ngini = 0.36\nsamples = 11\nvalue = [0, 3, 10, 0]", fillcolor="#74baed"] ;
147 -> 151 ;
152 [label="gini = 0.0\nsamples = 1\nvalue = [0, 2, 0, 0]", fillcolor="#47e539"] ;
151 -> 152 ;
153 [label="X[3] <= 0.54\ngini = 0.17\nsamples = 10\nvalue = [0, 1, 10, 0]", fillcolor="#4da7e8"] ;
151 -> 153 ;
154 [label="gini = 0.0\nsamples = 6\nvalue = [0, 0, 6, 0]", fillcolor="#399de5"] ;
153 -> 154 ;
155 [label="X[0] <= 9.0\ngini = 0.32\nsamples = 4\nvalue = [0, 1, 4, 0]", fillcolor="#6ab6ec"] ;
153 -> 155 ;
156 [label="gini = 0.0\nsamples = 1\nvalue = [0, 1, 0, 0]", fillcolor="#47e539"] ;
155 -> 156 ;
157 [label="gini = 0.0\nsamples = 3\nvalue = [0, 0, 4, 0]", fillcolor="#399de5"] ;
155 -> 157 ;
158 [label="X[0] <= 154.5\ngini = 0.07\nsamples = 148\nvalue = [0, 0, 8, 206]", fillcolor="#d941e6"] ;
146 -> 158 ;
159 [label="X[0] <= 48.5\ngini = 0.02\nsamples = 127\nvalue = [0, 0, 2, 178]", fillcolor="#d73be5"] ;
158 -> 159 ;
160 [label="X[5] <= 0.0\ngini = 0.1\nsamples = 28\nvalue = [0, 0, 2, 37]", fillcolor="#d944e6"] ;
159 -> 160 ;
161 [label="X[1] <= -3.61\ngini = 0.32\nsamples = 8\nvalue = [0, 0, 2, 8]", fillcolor="#e16aec"] ;
160 -> 161 ;
162 [label="X[0] <= 33.5\ngini = 0.44\nsamples = 3\nvalue = [0, 0, 2, 1]", fillcolor="#9ccef2"] ;
161 -> 162 ;
163 [label="gini = 0.0\nsamples = 1\nvalue = [0, 0, 1, 0]", fillcolor="#399de5"] ;
162 -> 163 ;
164 [label="X[1] <= -3.85\ngini = 0.5\nsamples = 2\nvalue = [0, 0, 1, 1]", fillcolor="#ffffff"] ;
162 -> 164 ;
165 [label="gini = 0.0\nsamples = 1\nvalue = [0, 0, 0, 1]", fillcolor="#d739e5"] ;
164 -> 165 ;
166 [label="gini = 0.0\nsamples = 1\nvalue = [0, 0, 1, 0]", fillcolor="#399de5"] ;
164 -> 166 ;
167 [label="gini = 0.0\nsamples = 5\nvalue = [0, 0, 0, 7]", fillcolor="#d739e5"] ;
161 -> 167 ;
168 [label="gini = 0.0\nsamples = 20\nvalue = [0, 0, 0, 29]", fillcolor="#d739e5"] ;
160 -> 168 ;
169 [label="gini = 0.0\nsamples = 99\nvalue = [0, 0, 0, 141]", fillcolor="#d739e5"] ;
159 -> 169 ;
170 [label="X[0] <= 160.5\ngini = 0.29\nsamples = 21\nvalue = [0, 0, 6, 28]", fillcolor="#e063eb"] ;
158 -> 170 ;
171 [label="X[1] <= -3.61\ngini = 0.5\nsamples = 5\nvalue = [0, 0, 3, 3]", fillcolor="#ffffff"] ;
170 -> 171 ;
172 [label="gini = 0.0\nsamples = 3\nvalue = [0, 0, 0, 3]", fillcolor="#d739e5"] ;
171 -> 172 ;
173 [label="gini = 0.0\nsamples = 2\nvalue = [0, 0, 3, 0]", fillcolor="#399de5"] ;
171 -> 173 ;
174 [label="X[0] <= 172.5\ngini = 0.19\nsamples = 16\nvalue = [0, 0, 3, 25]", fillcolor="#dc51e8"] ;
170 -> 174 ;
175 [label="X[3] <= 0.15\ngini = 0.1\nsamples = 11\nvalue = [0, 0, 1, 17]", fillcolor="#d945e7"] ;
174 -> 175 ;
176 [label="X[2] <= 0.01\ngini = 0.38\nsamples = 3\nvalue = [0, 0, 1, 3]", fillcolor="#e47bee"] ;
175 -> 176 ;
177 [label="gini = 0.0\nsamples = 1\nvalue = [0, 0, 1, 0]", fillcolor="#399de5"] ;
176 -> 177 ;
178 [label="gini = 0.0\nsamples = 2\nvalue = [0, 0, 0, 3]", fillcolor="#d739e5"] ;
176 -> 178 ;
179 [label="gini = 0.0\nsamples = 8\nvalue = [0, 0, 0, 14]", fillcolor="#d739e5"] ;
175 -> 179 ;
180 [label="X[3] <= 0.54\ngini = 0.32\nsamples = 5\nvalue = [0, 0, 2, 8]", fillcolor="#e16aec"] ;
174 -> 180 ;
181 [label="X[5] <= 0.01\ngini = 0.2\nsamples = 4\nvalue = [0, 0, 1, 8]", fillcolor="#dc52e8"] ;
180 -> 181 ;
182 [label="gini = 0.0\nsamples = 3\nvalue = [0, 0, 0, 8]", fillcolor="#d739e5"] ;
181 -> 182 ;
183 [label="gini = 0.0\nsamples = 1\nvalue = [0, 0, 1, 0]", fillcolor="#399de5"] ;
181 -> 183 ;
184 [label="gini = 0.0\nsamples = 1\nvalue = [0, 0, 1, 0]", fillcolor="#399de5"] ;
180 -> 184 ;
185 [label="X[5] <= 0.0\ngini = 0.47\nsamples = 60\nvalue = [1, 3, 27, 62]", fillcolor="#ea96f1"] ;
145 -> 185 ;
186 [label="X[0] <= 14.5\ngini = 0.2\nsamples = 18\nvalue = [0, 1, 2, 25]", fillcolor="#dc50e8"] ;
185 -> 186 ;
187 [label="gini = 0.0\nsamples = 1\nvalue = [0, 1, 0, 0]", fillcolor="#47e539"] ;
186 -> 187 ;
188 [label="X[0] <= 155.5\ngini = 0.14\nsamples = 17\nvalue = [0, 0, 2, 25]", fillcolor="#da49e7"] ;
186 -> 188 ;
189 [label="gini = 0.0\nsamples = 13\nvalue = [0, 0, 0, 22]", fillcolor="#d739e5"] ;
188 -> 189 ;
190 [label="X[1] <= -3.65\ngini = 0.48\nsamples = 4\nvalue = [0, 0, 2, 3]", fillcolor="#f2bdf6"] ;
188 -> 190 ;
191 [label="gini = 0.0\nsamples = 1\nvalue = [0, 0, 1, 0]", fillcolor="#399de5"] ;
190 -> 191 ;
192 [label="X[2] <= 0.01\ngini = 0.38\nsamples = 3\nvalue = [0, 0, 1, 3]", fillcolor="#e47bee"] ;
190 -> 192 ;
193 [label="gini = 0.0\nsamples = 2\nvalue = [0, 0, 0, 3]", fillcolor="#d739e5"] ;
192 -> 193 ;
194 [label="gini = 0.0\nsamples = 1\nvalue = [0, 0, 1, 0]", fillcolor="#399de5"] ;
192 -> 194 ;
195 [label="X[0] <= 131.0\ngini = 0.53\nsamples = 42\nvalue = [1, 2, 25, 37]", fillcolor="#f3c4f7"] ;
185 -> 195 ;
196 [label="X[0] <= 26.5\ngini = 0.38\nsamples = 32\nvalue = [1, 2, 7, 34]", fillcolor="#e26fec"] ;
195 -> 196 ;
197 [label="X[0] <= 8.0\ngini = 0.46\nsamples = 8\nvalue = [1, 2, 7, 0]", fillcolor="#83c2ef"] ;
196 -> 197 ;
198 [label="X[1] <= -3.85\ngini = 0.44\nsamples = 3\nvalue = [1, 2, 0, 0]", fillcolor="#a3f29c"] ;
197 -> 198 ;
199 [label="gini = 0.0\nsamples = 1\nvalue = [1, 0, 0, 0]", fillcolor="#e58139"] ;
198 -> 199 ;
200 [label="gini = 0.0\nsamples = 2\nvalue = [0, 2, 0, 0]", fillcolor="#47e539"] ;
198 -> 200 ;
201 [label="gini = 0.0\nsamples = 5\nvalue = [0, 0, 7, 0]", fillcolor="#399de5"] ;
197 -> 201 ;
202 [label="gini = 0.0\nsamples = 24\nvalue = [0, 0, 0, 34]", fillcolor="#d739e5"] ;
196 -> 202 ;
203 [label="X[2] <= 0.0\ngini = 0.24\nsamples = 10\nvalue = [0, 0, 18, 3]", fillcolor="#5aade9"] ;
195 -> 203 ;
204 [label="X[1] <= -3.46\ngini = 0.49\nsamples = 3\nvalue = [0, 0, 4, 3]", fillcolor="#cee6f8"] ;
203 -> 204 ;
205 [label="gini = 0.0\nsamples = 2\nvalue = [0, 0, 4, 0]", fillcolor="#399de5"] ;
204 -> 205 ;
206 [label="gini = 0.0\nsamples = 1\nvalue = [0, 0, 0, 3]", fillcolor="#d739e5"] ;
204 -> 206 ;
207 [label="gini = 0.0\nsamples = 7\nvalue = [0, 0, 14, 0]", fillcolor="#399de5"] ;
203 -> 207 ;
208 [label="X[1] <= -3.35\ngini = 0.35\nsamples = 64\nvalue = [0, 1, 82, 23]", fillcolor="#72b9ed"] ;
144 -> 208 ;
209 [label="X[0] <= 183.5\ngini = 0.2\nsamples = 44\nvalue = [0, 0, 69, 9]", fillcolor="#53aae8"] ;
208 -> 209 ;
210 [label="gini = 0.0\nsamples = 10\nvalue = [0, 0, 22, 0]", fillcolor="#399de5"] ;
209 -> 210 ;
211 [label="X[0] <= 194.5\ngini = 0.27\nsamples = 34\nvalue = [0, 0, 47, 9]", fillcolor="#5fb0ea"] ;
209 -> 211 ;
212 [label="X[0] <= 193.5\ngini = 0.49\nsamples = 9\nvalue = [0, 0, 8, 6]", fillcolor="#cee6f8"] ;
211 -> 212 ;
213 [label="X[0] <= 184.5\ngini = 0.4\nsamples = 8\nvalue = [0, 0, 8, 3]", fillcolor="#83c2ef"] ;
212 -> 213 ;
214 [label="gini = 0.0\nsamples = 1\nvalue = [0, 0, 0, 1]", fillcolor="#d739e5"] ;
213 -> 214 ;
215 [label="X[5] <= 0.0\ngini = 0.32\nsamples = 7\nvalue = [0, 0, 8, 2]", fillcolor="#6ab6ec"] ;
213 -> 215 ;
216 [label="gini = 0.0\nsamples = 2\nvalue = [0, 0, 0, 2]", fillcolor="#d739e5"] ;
215 -> 216 ;
217 [label="gini = 0.0\nsamples = 5\nvalue = [0, 0, 8, 0]", fillcolor="#399de5"] ;
215 -> 217 ;
218 [label="gini = 0.0\nsamples = 1\nvalue = [0, 0, 0, 3]", fillcolor="#d739e5"] ;
212 -> 218 ;
219 [label="X[3] <= 0.54\ngini = 0.13\nsamples = 25\nvalue = [0, 0, 39, 3]", fillcolor="#48a5e7"] ;
211 -> 219 ;
220 [label="X[0] <= 203.5\ngini = 0.2\nsamples = 16\nvalue = [0, 0, 24, 3]", fillcolor="#52a9e8"] ;
219 -> 220 ;
221 [label="gini = 0.0\nsamples = 7\nvalue = [0, 0, 14, 0]", fillcolor="#399de5"] ;
220 -> 221 ;
222 [label="X[1] <= -3.61\ngini = 0.36\nsamples = 9\nvalue = [0, 0, 10, 3]", fillcolor="#74baed"] ;
220 -> 222 ;
223 [label="X[0] <= 211.5\ngini = 0.48\nsamples = 5\nvalue = [0, 0, 2, 3]", fillcolor="#f2bdf6"] ;
222 -> 223 ;
224 [label="gini = 0.0\nsamples = 3\nvalue = [0, 0, 0, 3]", fillcolor="#d739e5"] ;
223 -> 224 ;
225 [label="gini = 0.0\nsamples = 2\nvalue = [0, 0, 2, 0]", fillcolor="#399de5"] ;
223 -> 225 ;
226 [label="gini = 0.0\nsamples = 4\nvalue = [0, 0, 8, 0]", fillcolor="#399de5"] ;
222 -> 226 ;
227 [label="gini = 0.0\nsamples = 9\nvalue = [0, 0, 15, 0]", fillcolor="#399de5"] ;
219 -> 227 ;
228 [label="X[0] <= 190.0\ngini = 0.53\nsamples = 20\nvalue = [0, 1, 13, 14]", fillcolor="#fcf2fd"] ;
208 -> 228 ;
229 [label="X[3] <= 0.54\ngini = 0.18\nsamples = 6\nvalue = [0, 0, 9, 1]", fillcolor="#4fa8e8"] ;
228 -> 229 ;
230 [label="X[0] <= 184.5\ngini = 0.5\nsamples = 2\nvalue = [0, 0, 1, 1]", fillcolor="#ffffff"] ;
229 -> 230 ;
231 [label="gini = 0.0\nsamples = 1\nvalue = [0, 0, 0, 1]", fillcolor="#d739e5"] ;
230 -> 231 ;
232 [label="gini = 0.0\nsamples = 1\nvalue = [0, 0, 1, 0]", fillcolor="#399de5"] ;
230 -> 232 ;
233 [label="gini = 0.0\nsamples = 4\nvalue = [0, 0, 8, 0]", fillcolor="#399de5"] ;
229 -> 233 ;
234 [label="X[3] <= 0.39\ngini = 0.43\nsamples = 14\nvalue = [0, 1, 4, 13]", fillcolor="#e580ee"] ;
228 -> 234 ;
235 [label="gini = 0.0\nsamples = 9\nvalue = [0, 0, 0, 11]", fillcolor="#d739e5"] ;
234 -> 235 ;
236 [label="X[2] <= 0.0\ngini = 0.57\nsamples = 5\nvalue = [0, 1, 4, 2]", fillcolor="#b0d8f5"] ;
234 -> 236 ;
237 [label="gini = 0.0\nsamples = 1\nvalue = [0, 0, 0, 2]", fillcolor="#d739e5"] ;
236 -> 237 ;
238 [label="X[5] <= 0.01\ngini = 0.32\nsamples = 4\nvalue = [0, 1, 4, 0]", fillcolor="#6ab6ec"] ;
236 -> 238 ;
239 [label="X[3] <= 0.59\ngini = 0.5\nsamples = 2\nvalue = [0, 1, 1, 0]", fillcolor="#ffffff"] ;
238 -> 239 ;
240 [label="gini = 0.0\nsamples = 1\nvalue = [0, 0, 1, 0]", fillcolor="#399de5"] ;
239 -> 240 ;
241 [label="gini = 0.0\nsamples = 1\nvalue = [0, 1, 0, 0]", fillcolor="#47e539"] ;
239 -> 241 ;
242 [label="gini = 0.0\nsamples = 2\nvalue = [0, 0, 3, 0]", fillcolor="#399de5"] ;
238 -> 242 ;
243 [label="X[3] <= 0.39\ngini = 0.58\nsamples = 242\nvalue = [47, 228, 55, 47]", fillcolor="#9cf195"] ;
143 -> 243 ;
244 [label="X[1] <= -3.61\ngini = 0.61\nsamples = 77\nvalue = [4, 50, 11, 45]", fillcolor="#f1fdf0"] ;
243 -> 244 ;
245 [label="gini = 0.0\nsamples = 19\nvalue = [0, 0, 0, 26]", fillcolor="#d739e5"] ;
244 -> 245 ;
246 [label="X[1] <= -3.35\ngini = 0.58\nsamples = 58\nvalue = [4, 50, 11, 19]", fillcolor="#a7f3a1"] ;
244 -> 246 ;
247 [label="X[0] <= 260.5\ngini = 0.31\nsamples = 43\nvalue = [4, 49, 7, 0]", fillcolor="#6dea62"] ;
246 -> 247 ;
248 [label="X[0] <= 234.0\ngini = 0.46\nsamples = 7\nvalue = [0, 4, 7, 0]", fillcolor="#aad5f4"] ;
247 -> 248 ;
249 [label="gini = 0.0\nsamples = 1\nvalue = [0, 2, 0, 0]", fillcolor="#47e539"] ;
248 -> 249 ;
250 [label="X[0] <= 250.5\ngini = 0.35\nsamples = 6\nvalue = [0, 2, 7, 0]", fillcolor="#72b9ec"] ;
248 -> 250 ;
251 [label="gini = 0.0\nsamples = 4\nvalue = [0, 0, 5, 0]", fillcolor="#399de5"] ;
250 -> 251 ;
252 [label="X[5] <= 0.0\ngini = 0.5\nsamples = 2\nvalue = [0, 2, 2, 0]", fillcolor="#ffffff"] ;
250 -> 252 ;
253 [label="gini = 0.0\nsamples = 1\nvalue = [0, 0, 2, 0]", fillcolor="#399de5"] ;
252 -> 253 ;
254 [label="gini = 0.0\nsamples = 1\nvalue = [0, 2, 0, 0]", fillcolor="#47e539"] ;
252 -> 254 ;
255 [label="X[2] <= 0.01\ngini = 0.15\nsamples = 36\nvalue = [4, 45, 0, 0]", fillcolor="#57e74b"] ;
247 -> 255 ;
256 [label="gini = 0.0\nsamples = 23\nvalue = [0, 33, 0, 0]", fillcolor="#47e539"] ;
255 -> 256 ;
257 [label="X[0] <= 377.0\ngini = 0.38\nsamples = 13\nvalue = [4, 12, 0, 0]", fillcolor="#84ee7b"] ;
255 -> 257 ;
258 [label="gini = 0.0\nsamples = 9\nvalue = [0, 12, 0, 0]", fillcolor="#47e539"] ;
257 -> 258 ;
259 [label="gini = 0.0\nsamples = 4\nvalue = [4, 0, 0, 0]", fillcolor="#e58139"] ;
257 -> 259 ;
260 [label="X[0] <= 243.5\ngini = 0.34\nsamples = 15\nvalue = [0, 1, 4, 19]", fillcolor="#e16aec"] ;
246 -> 260 ;
261 [label="gini = 0.0\nsamples = 1\nvalue = [0, 0, 2, 0]", fillcolor="#399de5"] ;
260 -> 261 ;
262 [label="X[5] <= 0.01\ngini = 0.24\nsamples = 14\nvalue = [0, 1, 2, 19]", fillcolor="#dd57e9"] ;
260 -> 262 ;
263 [label="gini = 0.0\nsamples = 10\nvalue = [0, 0, 0, 17]", fillcolor="#d739e5"] ;
262 -> 263 ;
264 [label="X[0] <= 291.5\ngini = 0.64\nsamples = 4\nvalue = [0, 1, 2, 2]", fillcolor="#ffffff"] ;
262 -> 264 ;
265 [label="gini = 0.0\nsamples = 2\nvalue = [0, 0, 0, 2]", fillcolor="#d739e5"] ;
264 -> 265 ;
266 [label="X[0] <= 354.5\ngini = 0.44\nsamples = 2\nvalue = [0, 1, 2, 0]", fillcolor="#9ccef2"] ;
264 -> 266 ;
267 [label="gini = 0.0\nsamples = 1\nvalue = [0, 0, 2, 0]", fillcolor="#399de5"] ;
266 -> 267 ;
268 [label="gini = 0.0\nsamples = 1\nvalue = [0, 1, 0, 0]", fillcolor="#47e539"] ;
266 -> 268 ;
269 [label="X[0] <= 365.5\ngini = 0.5\nsamples = 165\nvalue = [43, 178, 44, 2]", fillcolor="#90ef88"] ;
243 -> 269 ;
270 [label="X[0] <= 283.0\ngini = 0.41\nsamples = 135\nvalue = [15, 165, 41, 2]", fillcolor="#82ed78"] ;
269 -> 270 ;
271 [label="X[5] <= 0.01\ngini = 0.49\nsamples = 55\nvalue = [0, 53, 34, 1]", fillcolor="#bef6b9"] ;
270 -> 271 ;
272 [label="X[2] <= 0.0\ngini = 0.51\nsamples = 31\nvalue = [0, 20, 26, 1]", fillcolor="#d3e9f9"] ;
271 -> 272 ;
273 [label="X[3] <= 0.65\ngini = 0.12\nsamples = 9\nvalue = [0, 1, 14, 0]", fillcolor="#47a4e7"] ;
272 -> 273 ;
274 [label="X[0] <= 255.5\ngini = 0.2\nsamples = 7\nvalue = [0, 1, 8, 0]", fillcolor="#52a9e8"] ;
273 -> 274 ;
275 [label="X[1] <= -3.61\ngini = 0.5\nsamples = 2\nvalue = [0, 1, 1, 0]", fillcolor="#ffffff"] ;
274 -> 275 ;
276 [label="gini = 0.0\nsamples = 1\nvalue = [0, 0, 1, 0]", fillcolor="#399de5"] ;
275 -> 276 ;
277 [label="gini = 0.0\nsamples = 1\nvalue = [0, 1, 0, 0]", fillcolor="#47e539"] ;
275 -> 277 ;
278 [label="gini = 0.0\nsamples = 5\nvalue = [0, 0, 7, 0]", fillcolor="#399de5"] ;
274 -> 278 ;
279 [label="gini = 0.0\nsamples = 2\nvalue = [0, 0, 6, 0]", fillcolor="#399de5"] ;
273 -> 279 ;
280 [label="X[0] <= 248.0\ngini = 0.51\nsamples = 22\nvalue = [0, 19, 12, 1]", fillcolor="#bff6ba"] ;
272 -> 280 ;
281 [label="X[0] <= 243.5\ngini = 0.49\nsamples = 7\nvalue = [0, 2, 6, 1]", fillcolor="#8ec7f0"] ;
280 -> 281 ;
282 [label="X[0] <= 233.5\ngini = 0.61\nsamples = 5\nvalue = [0, 2, 3, 1]", fillcolor="#cee6f8"] ;
281 -> 282 ;
283 [label="gini = 0.0\nsamples = 2\nvalue = [0, 0, 2, 0]", fillcolor="#399de5"] ;
282 -> 283 ;
284 [label="X[2] <= 0.01\ngini = 0.62\nsamples = 3\nvalue = [0, 2, 1, 1]", fillcolor="#c2f6bd"] ;
282 -> 284 ;
285 [label="X[3] <= 0.59\ngini = 0.5\nsamples = 2\nvalue = [0, 0, 1, 1]", fillcolor="#ffffff"] ;
284 -> 285 ;
286 [label="gini = 0.0\nsamples = 1\nvalue = [0, 0, 0, 1]", fillcolor="#d739e5"] ;
285 -> 286 ;
287 [label="gini = 0.0\nsamples = 1\nvalue = [0, 0, 1, 0]", fillcolor="#399de5"] ;
285 -> 287 ;
288 [label="gini = 0.0\nsamples = 1\nvalue = [0, 2, 0, 0]", fillcolor="#47e539"] ;
284 -> 288 ;
289 [label="gini = 0.0\nsamples = 2\nvalue = [0, 0, 3, 0]", fillcolor="#399de5"] ;
281 -> 289 ;
290 [label="X[2] <= 0.01\ngini = 0.39\nsamples = 15\nvalue = [0, 17, 6, 0]", fillcolor="#88ee7f"] ;
280 -> 290 ;
291 [label="X[3] <= 0.65\ngini = 0.5\nsamples = 9\nvalue = [0, 7, 6, 0]", fillcolor="#e5fbe3"] ;
290 -> 291 ;
292 [label="X[0] <= 275.0\ngini = 0.24\nsamples = 5\nvalue = [0, 1, 6, 0]", fillcolor="#5aade9"] ;
291 -> 292 ;
293 [label="gini = 0.0\nsamples = 3\nvalue = [0, 0, 5, 0]", fillcolor="#399de5"] ;
292 -> 293 ;
294 [label="X[1] <= -3.76\ngini = 0.5\nsamples = 2\nvalue = [0, 1, 1, 0]", fillcolor="#ffffff"] ;
292 -> 294 ;
295 [label="gini = 0.0\nsamples = 1\nvalue = [0, 0, 1, 0]", fillcolor="#399de5"] ;
294 -> 295 ;
296 [label="gini = 0.0\nsamples = 1\nvalue = [0, 1, 0, 0]", fillcolor="#47e539"] ;
294 -> 296 ;
297 [label="gini = 0.0\nsamples = 4\nvalue = [0, 6, 0, 0]", fillcolor="#47e539"] ;
291 -> 297 ;
298 [label="gini = 0.0\nsamples = 6\nvalue = [0, 10, 0, 0]", fillcolor="#47e539"] ;
290 -> 298 ;
299 [label="X[3] <= 0.54\ngini = 0.31\nsamples = 24\nvalue = [0, 33, 8, 0]", fillcolor="#74eb69"] ;
271 -> 299 ;
300 [label="X[1] <= -3.76\ngini = 0.49\nsamples = 7\nvalue = [0, 5, 7, 0]", fillcolor="#c6e3f8"] ;
299 -> 300 ;
301 [label="gini = 0.0\nsamples = 2\nvalue = [0, 0, 4, 0]", fillcolor="#399de5"] ;
300 -> 301 ;
302 [label="X[2] <= 0.01\ngini = 0.47\nsamples = 5\nvalue = [0, 5, 3, 0]", fillcolor="#b5f5b0"] ;
300 -> 302 ;
303 [label="X[1] <= -3.46\ngini = 0.38\nsamples = 3\nvalue = [0, 1, 3, 0]", fillcolor="#7bbeee"] ;
302 -> 303 ;
304 [label="gini = 0.0\nsamples = 1\nvalue = [0, 1, 0, 0]", fillcolor="#47e539"] ;
303 -> 304 ;
305 [label="gini = 0.0\nsamples = 2\nvalue = [0, 0, 3, 0]", fillcolor="#399de5"] ;
303 -> 305 ;
306 [label="gini = 0.0\nsamples = 2\nvalue = [0, 4, 0, 0]", fillcolor="#47e539"] ;
302 -> 306 ;
307 [label="X[1] <= -3.46\ngini = 0.07\nsamples = 17\nvalue = [0, 28, 1, 0]", fillcolor="#4ee640"] ;
299 -> 307 ;
308 [label="gini = 0.0\nsamples = 12\nvalue = [0, 22, 0, 0]", fillcolor="#47e539"] ;
307 -> 308 ;
309 [label="X[2] <= 0.01\ngini = 0.24\nsamples = 5\nvalue = [0, 6, 1, 0]", fillcolor="#66e95a"] ;
307 -> 309 ;
310 [label="X[0] <= 243.5\ngini = 0.38\nsamples = 3\nvalue = [0, 3, 1, 0]", fillcolor="#84ee7b"] ;
309 -> 310 ;
311 [label="gini = 0.0\nsamples = 1\nvalue = [0, 0, 1, 0]", fillcolor="#399de5"] ;
310 -> 311 ;
312 [label="gini = 0.0\nsamples = 2\nvalue = [0, 3, 0, 0]", fillcolor="#47e539"] ;
310 -> 312 ;
313 [label="gini = 0.0\nsamples = 2\nvalue = [0, 3, 0, 0]", fillcolor="#47e539"] ;
309 -> 313 ;
314 [label="X[5] <= 0.01\ngini = 0.3\nsamples = 80\nvalue = [15, 112, 7, 1]", fillcolor="#6aea5f"] ;
270 -> 314 ;
315 [label="X[0] <= 359.5\ngini = 0.22\nsamples = 56\nvalue = [3, 80, 7, 1]", fillcolor="#5fe853"] ;
314 -> 315 ;
316 [label="X[1] <= -3.35\ngini = 0.16\nsamples = 51\nvalue = [3, 76, 3, 1]", fillcolor="#57e74a"] ;
315 -> 316 ;
317 [label="X[2] <= 0.01\ngini = 0.1\nsamples = 44\nvalue = [3, 72, 1, 0]", fillcolor="#51e644"] ;
316 -> 317 ;
318 [label="X[1] <= -3.61\ngini = 0.04\nsamples = 27\nvalue = [0, 48, 1, 0]", fillcolor="#4be63d"] ;
317 -> 318 ;
319 [label="X[3] <= 0.54\ngini = 0.15\nsamples = 7\nvalue = [0, 11, 1, 0]", fillcolor="#58e74b"] ;
318 -> 319 ;
320 [label="gini = 0.0\nsamples = 1\nvalue = [0, 0, 1, 0]", fillcolor="#399de5"] ;
319 -> 320 ;
321 [label="gini = 0.0\nsamples = 6\nvalue = [0, 11, 0, 0]", fillcolor="#47e539"] ;
319 -> 321 ;
322 [label="gini = 0.0\nsamples = 20\nvalue = [0, 37, 0, 0]", fillcolor="#47e539"] ;
318 -> 322 ;
323 [label="X[0] <= 348.0\ngini = 0.2\nsamples = 17\nvalue = [3, 24, 0, 0]", fillcolor="#5ee852"] ;
317 -> 323 ;
324 [label="gini = 0.0\nsamples = 14\nvalue = [0, 22, 0, 0]", fillcolor="#47e539"] ;
323 -> 324 ;
325 [label="X[0] <= 352.5\ngini = 0.48\nsamples = 3\nvalue = [3, 2, 0, 0]", fillcolor="#f6d5bd"] ;
323 -> 325 ;
326 [label="gini = 0.0\nsamples = 2\nvalue = [3, 0, 0, 0]", fillcolor="#e58139"] ;
325 -> 326 ;
327 [label="gini = 0.0\nsamples = 1\nvalue = [0, 2, 0, 0]", fillcolor="#47e539"] ;
325 -> 327 ;
328 [label="X[3] <= 0.54\ngini = 0.57\nsamples = 7\nvalue = [0, 4, 2, 1]", fillcolor="#b5f5b0"] ;
316 -> 328 ;
329 [label="X[0] <= 286.5\ngini = 0.62\nsamples = 4\nvalue = [0, 1, 2, 1]", fillcolor="#bddef6"] ;
328 -> 329 ;
330 [label="gini = 0.0\nsamples = 1\nvalue = [0, 0, 0, 1]", fillcolor="#d739e5"] ;
329 -> 330 ;
331 [label="X[2] <= 0.01\ngini = 0.44\nsamples = 3\nvalue = [0, 1, 2, 0]", fillcolor="#9ccef2"] ;
329 -> 331 ;
332 [label="gini = 0.0\nsamples = 2\nvalue = [0, 0, 2, 0]", fillcolor="#399de5"] ;
331 -> 332 ;
333 [label="gini = 0.0\nsamples = 1\nvalue = [0, 1, 0, 0]", fillcolor="#47e539"] ;
331 -> 333 ;
334 [label="gini = 0.0\nsamples = 3\nvalue = [0, 3, 0, 0]", fillcolor="#47e539"] ;
328 -> 334 ;
335 [label="X[2] <= 0.0\ngini = 0.5\nsamples = 5\nvalue = [0, 4, 4, 0]", fillcolor="#ffffff"] ;
315 -> 335 ;
336 [label="gini = 0.0\nsamples = 1\nvalue = [0, 2, 0, 0]", fillcolor="#47e539"] ;
335 -> 336 ;
337 [label="X[3] <= 0.54\ngini = 0.44\nsamples = 4\nvalue = [0, 2, 4, 0]", fillcolor="#9ccef2"] ;
335 -> 337 ;
338 [label="X[5] <= 0.0\ngini = 0.32\nsamples = 3\nvalue = [0, 1, 4, 0]", fillcolor="#6ab6ec"] ;
337 -> 338 ;
339 [label="gini = 0.0\nsamples = 1\nvalue = [0, 1, 0, 0]", fillcolor="#47e539"] ;
338 -> 339 ;
340 [label="gini = 0.0\nsamples = 2\nvalue = [0, 0, 4, 0]", fillcolor="#399de5"] ;
338 -> 340 ;
341 [label="gini = 0.0\nsamples = 1\nvalue = [0, 1, 0, 0]", fillcolor="#47e539"] ;
337 -> 341 ;
342 [label="X[0] <= 322.0\ngini = 0.4\nsamples = 24\nvalue = [12, 32, 0, 0]", fillcolor="#8cef83"] ;
314 -> 342 ;
343 [label="gini = 0.0\nsamples = 9\nvalue = [0, 16, 0, 0]", fillcolor="#47e539"] ;
342 -> 343 ;
344 [label="X[2] <= 0.01\ngini = 0.49\nsamples = 15\nvalue = [12, 16, 0, 0]", fillcolor="#d1f8ce"] ;
342 -> 344 ;
345 [label="X[1] <= -3.35\ngini = 0.14\nsamples = 7\nvalue = [1, 12, 0, 0]", fillcolor="#56e749"] ;
344 -> 345 ;
346 [label="gini = 0.0\nsamples = 5\nvalue = [0, 11, 0, 0]", fillcolor="#47e539"] ;
345 -> 346 ;
347 [label="X[2] <= 0.0\ngini = 0.5\nsamples = 2\nvalue = [1, 1, 0, 0]", fillcolor="#ffffff"] ;
345 -> 347 ;
348 [label="gini = 0.0\nsamples = 1\nvalue = [1, 0, 0, 0]", fillcolor="#e58139"] ;
347 -> 348 ;
349 [label="gini = 0.0\nsamples = 1\nvalue = [0, 1, 0, 0]", fillcolor="#47e539"] ;
347 -> 349 ;
350 [label="X[3] <= 0.54\ngini = 0.39\nsamples = 8\nvalue = [11, 4, 0, 0]", fillcolor="#eeaf81"] ;
344 -> 350 ;
351 [label="gini = 0.0\nsamples = 2\nvalue = [0, 4, 0, 0]", fillcolor="#47e539"] ;
350 -> 351 ;
352 [label="gini = 0.0\nsamples = 6\nvalue = [11, 0, 0, 0]", fillcolor="#e58139"] ;
350 -> 352 ;
353 [label="X[5] <= 0.01\ngini = 0.5\nsamples = 30\nvalue = [28, 13, 3, 0]", fillcolor="#f2c29f"] ;
269 -> 353 ;
354 [label="X[3] <= 0.54\ngini = 0.58\nsamples = 20\nvalue = [14, 11, 3, 0]", fillcolor="#fae9dc"] ;
353 -> 354 ;
355 [label="X[5] <= 0.0\ngini = 0.49\nsamples = 5\nvalue = [0, 4, 3, 0]", fillcolor="#d1f8ce"] ;
354 -> 355 ;
356 [label="gini = 0.0\nsamples = 1\nvalue = [0, 0, 2, 0]", fillcolor="#399de5"] ;
355 -> 356 ;
357 [label="X[1] <= -3.61\ngini = 0.32\nsamples = 4\nvalue = [0, 4, 1, 0]", fillcolor="#75ec6a"] ;
355 -> 357 ;
358 [label="gini = 0.0\nsamples = 1\nvalue = [0, 0, 1, 0]", fillcolor="#399de5"] ;
357 -> 358 ;
359 [label="gini = 0.0\nsamples = 3\nvalue = [0, 4, 0, 0]", fillcolor="#47e539"] ;
357 -> 359 ;
360 [label="X[2] <= 0.0\ngini = 0.44\nsamples = 15\nvalue = [14, 7, 0, 0]", fillcolor="#f2c09c"] ;
354 -> 360 ;
361 [label="X[0] <= 379.0\ngini = 0.41\nsamples = 5\nvalue = [2, 5, 0, 0]", fillcolor="#91ef88"] ;
360 -> 361 ;
362 [label="gini = 0.0\nsamples = 2\nvalue = [0, 3, 0, 0]", fillcolor="#47e539"] ;
361 -> 362 ;
363 [label="X[0] <= 382.5\ngini = 0.5\nsamples = 3\nvalue = [2, 2, 0, 0]", fillcolor="#ffffff"] ;
361 -> 363 ;
364 [label="gini = 0.0\nsamples = 1\nvalue = [2, 0, 0, 0]", fillcolor="#e58139"] ;
363 -> 364 ;
365 [label="gini = 0.0\nsamples = 2\nvalue = [0, 2, 0, 0]", fillcolor="#47e539"] ;
363 -> 365 ;
366 [label="X[2] <= 0.01\ngini = 0.24\nsamples = 10\nvalue = [12, 2, 0, 0]", fillcolor="#e9965a"] ;
360 -> 366 ;
367 [label="X[0] <= 383.0\ngini = 0.41\nsamples = 6\nvalue = [5, 2, 0, 0]", fillcolor="#efb388"] ;
366 -> 367 ;
368 [label="gini = 0.0\nsamples = 2\nvalue = [2, 0, 0, 0]", fillcolor="#e58139"] ;
367 -> 368 ;
369 [label="X[1] <= -3.46\ngini = 0.48\nsamples = 4\nvalue = [3, 2, 0, 0]", fillcolor="#f6d5bd"] ;
367 -> 369 ;
370 [label="gini = 0.0\nsamples = 2\nvalue = [3, 0, 0, 0]", fillcolor="#e58139"] ;
369 -> 370 ;
371 [label="gini = 0.0\nsamples = 2\nvalue = [0, 2, 0, 0]", fillcolor="#47e539"] ;
369 -> 371 ;
372 [label="gini = 0.0\nsamples = 4\nvalue = [7, 0, 0, 0]", fillcolor="#e58139"] ;
366 -> 372 ;
373 [label="X[3] <= 0.54\ngini = 0.22\nsamples = 10\nvalue = [14, 2, 0, 0]", fillcolor="#e99355"] ;
353 -> 373 ;
374 [label="X[2] <= 0.01\ngini = 0.44\nsamples = 3\nvalue = [1, 2, 0, 0]", fillcolor="#a3f29c"] ;
373 -> 374 ;
375 [label="gini = 0.0\nsamples = 2\nvalue = [0, 2, 0, 0]", fillcolor="#47e539"] ;
374 -> 375 ;
376 [label="gini = 0.0\nsamples = 1\nvalue = [1, 0, 0, 0]", fillcolor="#e58139"] ;
374 -> 376 ;
377 [label="gini = 0.0\nsamples = 7\nvalue = [13, 0, 0, 0]", fillcolor="#e58139"] ;
373 -> 377 ;
378 [label="X[0] <= 213.5\ngini = 0.74\nsamples = 914\nvalue = [309, 404, 298, 420]", fillcolor="#fefcff"] ;
2 -> 378 ;
379 [label="X[0] <= 135.5\ngini = 0.56\nsamples = 467\nvalue = [13, 49, 275, 420]", fillcolor="#f3c3f7"] ;
378 -> 379 ;
380 [label="X[0] <= 20.5\ngini = 0.27\nsamples = 290\nvalue = [7, 9, 56, 390]", fillcolor="#de5cea"] ;
379 -> 380 ;
381 [label="X[3] <= 0.39\ngini = 0.66\nsamples = 46\nvalue = [7, 9, 33, 25]", fillcolor="#dfeffb"] ;
380 -> 381 ;
382 [label="X[0] <= 9.5\ngini = 0.53\nsamples = 24\nvalue = [3, 1, 11, 25]", fillcolor="#ec9ff2"] ;
381 -> 382 ;
383 [label="X[4] <= -1.5\ngini = 0.53\nsamples = 10\nvalue = [3, 1, 11, 2]", fillcolor="#8ec7f0"] ;
382 -> 383 ;
384 [label="X[1] <= -3.35\ngini = 0.18\nsamples = 7\nvalue = [0, 1, 9, 0]", fillcolor="#4fa8e8"] ;
383 -> 384 ;
385 [label="gini = 0.0\nsamples = 6\nvalue = [0, 0, 9, 0]", fillcolor="#399de5"] ;
384 -> 385 ;
386 [label="gini = 0.0\nsamples = 1\nvalue = [0, 1, 0, 0]", fillcolor="#47e539"] ;
384 -> 386 ;
387 [label="X[4] <= -0.5\ngini = 0.65\nsamples = 3\nvalue = [3, 0, 2, 2]", fillcolor="#fae6d7"] ;
383 -> 387 ;
388 [label="gini = 0.0\nsamples = 1\nvalue = [3, 0, 0, 0]", fillcolor="#e58139"] ;
387 -> 388 ;
389 [label="X[1] <= -3.76\ngini = 0.5\nsamples = 2\nvalue = [0, 0, 2, 2]", fillcolor="#ffffff"] ;
387 -> 389 ;
390 [label="gini = 0.0\nsamples = 1\nvalue = [0, 0, 2, 0]", fillcolor="#399de5"] ;
389 -> 390 ;
391 [label="gini = 0.0\nsamples = 1\nvalue = [0, 0, 0, 2]", fillcolor="#d739e5"] ;
389 -> 391 ;
392 [label="gini = 0.0\nsamples = 14\nvalue = [0, 0, 0, 23]", fillcolor="#d739e5"] ;
382 -> 392 ;
393 [label="X[0] <= 7.5\ngini = 0.51\nsamples = 22\nvalue = [4, 8, 22, 0]", fillcolor="#94caf1"] ;
381 -> 393 ;
394 [label="X[0] <= 2.5\ngini = 0.44\nsamples = 8\nvalue = [4, 8, 0, 0]", fillcolor="#a3f29c"] ;
393 -> 394 ;
395 [label="gini = 0.0\nsamples = 3\nvalue = [4, 0, 0, 0]", fillcolor="#e58139"] ;
394 -> 395 ;
396 [label="gini = 0.0\nsamples = 5\nvalue = [0, 8, 0, 0]", fillcolor="#47e539"] ;
394 -> 396 ;
397 [label="gini = 0.0\nsamples = 14\nvalue = [0, 0, 22, 0]", fillcolor="#399de5"] ;
393 -> 397 ;
398 [label="X[4] <= -0.5\ngini = 0.11\nsamples = 244\nvalue = [0, 0, 23, 365]", fillcolor="#da45e7"] ;
380 -> 398 ;
399 [label="X[0] <= 128.5\ngini = 0.02\nsamples = 198\nvalue = [0, 0, 3, 318]", fillcolor="#d73be5"] ;
398 -> 399 ;
400 [label="gini = 0.0\nsamples = 189\nvalue = [0, 0, 0, 307]", fillcolor="#d739e5"] ;
399 -> 400 ;
401 [label="X[3] <= 0.15\ngini = 0.34\nsamples = 9\nvalue = [0, 0, 3, 11]", fillcolor="#e26fec"] ;
399 -> 401 ;
402 [label="gini = 0.0\nsamples = 1\nvalue = [0, 0, 1, 0]", fillcolor="#399de5"] ;
401 -> 402 ;
403 [label="X[2] <= 0.01\ngini = 0.26\nsamples = 8\nvalue = [0, 0, 2, 11]", fillcolor="#de5dea"] ;
401 -> 403 ;
404 [label="gini = 0.0\nsamples = 5\nvalue = [0, 0, 0, 7]", fillcolor="#d739e5"] ;
403 -> 404 ;
405 [label="X[1] <= -3.7\ngini = 0.44\nsamples = 3\nvalue = [0, 0, 2, 4]", fillcolor="#eb9cf2"] ;
403 -> 405 ;
406 [label="gini = 0.0\nsamples = 2\nvalue = [0, 0, 0, 4]", fillcolor="#d739e5"] ;
405 -> 406 ;
407 [label="gini = 0.0\nsamples = 1\nvalue = [0, 0, 2, 0]", fillcolor="#399de5"] ;
405 -> 407 ;
408 [label="X[3] <= 0.65\ngini = 0.42\nsamples = 46\nvalue = [0, 0, 20, 47]", fillcolor="#e88df0"] ;
398 -> 408 ;
409 [label="X[0] <= 97.5\ngini = 0.46\nsamples = 39\nvalue = [0, 0, 20, 37]", fillcolor="#eda4f3"] ;
408 -> 409 ;
410 [label="X[2] <= 0.01\ngini = 0.05\nsamples = 25\nvalue = [0, 0, 1, 37]", fillcolor="#d83ee6"] ;
409 -> 410 ;
411 [label="gini = 0.0\nsamples = 18\nvalue = [0, 0, 0, 27]", fillcolor="#d739e5"] ;
410 -> 411 ;
412 [label="X[3] <= 0.54\ngini = 0.17\nsamples = 7\nvalue = [0, 0, 1, 10]", fillcolor="#db4de8"] ;
410 -> 412 ;
413 [label="gini = 0.0\nsamples = 5\nvalue = [0, 0, 0, 8]", fillcolor="#d739e5"] ;
412 -> 413 ;
414 [label="X[1] <= -3.5\ngini = 0.44\nsamples = 2\nvalue = [0, 0, 1, 2]", fillcolor="#eb9cf2"] ;
412 -> 414 ;
415 [label="gini = 0.0\nsamples = 1\nvalue = [0, 0, 1, 0]", fillcolor="#399de5"] ;
414 -> 415 ;
416 [label="gini = 0.0\nsamples = 1\nvalue = [0, 0, 0, 2]", fillcolor="#d739e5"] ;
414 -> 416 ;
417 [label="gini = 0.0\nsamples = 14\nvalue = [0, 0, 19, 0]", fillcolor="#399de5"] ;
409 -> 417 ;
418 [label="gini = 0.0\nsamples = 7\nvalue = [0, 0, 0, 10]", fillcolor="#d739e5"] ;
408 -> 418 ;
419 [label="X[4] <= -0.5\ngini = 0.42\nsamples = 177\nvalue = [6, 40, 219, 30]", fillcolor="#74baed"] ;
379 -> 419 ;
420 [label="X[0] <= 155.5\ngini = 0.28\nsamples = 141\nvalue = [0, 8, 199, 30]", fillcolor="#5dafea"] ;
419 -> 420 ;
421 [label="X[3] <= 0.54\ngini = 0.45\nsamples = 35\nvalue = [0, 0, 38, 20]", fillcolor="#a1d1f3"] ;
420 -> 421 ;
422 [label="X[3] <= 0.15\ngini = 0.43\nsamples = 15\nvalue = [0, 0, 9, 20]", fillcolor="#e992f1"] ;
421 -> 422 ;
423 [label="gini = 0.0\nsamples = 5\nvalue = [0, 0, 9, 0]", fillcolor="#399de5"] ;
422 -> 423 ;
424 [label="gini = 0.0\nsamples = 10\nvalue = [0, 0, 0, 20]", fillcolor="#d739e5"] ;
422 -> 424 ;
425 [label="gini = 0.0\nsamples = 20\nvalue = [0, 0, 29, 0]", fillcolor="#399de5"] ;
421 -> 425 ;
426 [label="X[0] <= 203.5\ngini = 0.19\nsamples = 106\nvalue = [0, 8, 161, 10]", fillcolor="#4ea7e8"] ;
420 -> 426 ;
427 [label="X[0] <= 169.5\ngini = 0.14\nsamples = 88\nvalue = [0, 1, 140, 10]", fillcolor="#48a5e7"] ;
426 -> 427 ;
428 [label="X[0] <= 167.5\ngini = 0.28\nsamples = 29\nvalue = [0, 0, 49, 10]", fillcolor="#61b1ea"] ;
427 -> 428 ;
429 [label="X[4] <= -3.5\ngini = 0.16\nsamples = 22\nvalue = [0, 0, 42, 4]", fillcolor="#4ca6e7"] ;
428 -> 429 ;
430 [label="X[3] <= 0.45\ngini = 0.42\nsamples = 5\nvalue = [0, 0, 7, 3]", fillcolor="#8ec7f0"] ;
429 -> 430 ;
431 [label="X[3] <= 0.15\ngini = 0.48\nsamples = 2\nvalue = [0, 0, 2, 3]", fillcolor="#f2bdf6"] ;
430 -> 431 ;
432 [label="gini = 0.0\nsamples = 1\nvalue = [0, 0, 2, 0]", fillcolor="#399de5"] ;
431 -> 432 ;
433 [label="gini = 0.0\nsamples = 1\nvalue = [0, 0, 0, 3]", fillcolor="#d739e5"] ;
431 -> 433 ;
434 [label="gini = 0.0\nsamples = 3\nvalue = [0, 0, 5, 0]", fillcolor="#399de5"] ;
430 -> 434 ;
435 [label="X[1] <= -3.41\ngini = 0.05\nsamples = 17\nvalue = [0, 0, 35, 1]", fillcolor="#3fa0e6"] ;
429 -> 435 ;
436 [label="gini = 0.0\nsamples = 14\nvalue = [0, 0, 31, 0]", fillcolor="#399de5"] ;
435 -> 436 ;
437 [label="X[2] <= 0.0\ngini = 0.32\nsamples = 3\nvalue = [0, 0, 4, 1]", fillcolor="#6ab6ec"] ;
435 -> 437 ;
438 [label="gini = 0.0\nsamples = 1\nvalue = [0, 0, 0, 1]", fillcolor="#d739e5"] ;
437 -> 438 ;
439 [label="gini = 0.0\nsamples = 2\nvalue = [0, 0, 4, 0]", fillcolor="#399de5"] ;
437 -> 439 ;
440 [label="X[2] <= 0.01\ngini = 0.5\nsamples = 7\nvalue = [0, 0, 7, 6]", fillcolor="#e3f1fb"] ;
428 -> 440 ;
441 [label="gini = 0.0\nsamples = 3\nvalue = [0, 0, 0, 6]", fillcolor="#d739e5"] ;
440 -> 441 ;
442 [label="gini = 0.0\nsamples = 4\nvalue = [0, 0, 7, 0]", fillcolor="#399de5"] ;
440 -> 442 ;
443 [label="X[3] <= 0.65\ngini = 0.02\nsamples = 59\nvalue = [0, 1, 91, 0]", fillcolor="#3b9ee5"] ;
427 -> 443 ;
444 [label="gini = 0.0\nsamples = 48\nvalue = [0, 0, 78, 0]", fillcolor="#399de5"] ;
443 -> 444 ;
445 [label="X[0] <= 189.0\ngini = 0.13\nsamples = 11\nvalue = [0, 1, 13, 0]", fillcolor="#48a5e7"] ;
443 -> 445 ;
446 [label="gini = 0.0\nsamples = 9\nvalue = [0, 0, 12, 0]", fillcolor="#399de5"] ;
445 -> 446 ;
447 [label="X[2] <= 0.01\ngini = 0.5\nsamples = 2\nvalue = [0, 1, 1, 0]", fillcolor="#ffffff"] ;
445 -> 447 ;
448 [label="gini = 0.0\nsamples = 1\nvalue = [0, 0, 1, 0]", fillcolor="#399de5"] ;
447 -> 448 ;
449 [label="gini = 0.0\nsamples = 1\nvalue = [0, 1, 0, 0]", fillcolor="#47e539"] ;
447 -> 449 ;
450 [label="X[3] <= 0.65\ngini = 0.38\nsamples = 18\nvalue = [0, 7, 21, 0]", fillcolor="#7bbeee"] ;
426 -> 450 ;
451 [label="X[1] <= -3.46\ngini = 0.22\nsamples = 14\nvalue = [0, 3, 21, 0]", fillcolor="#55abe9"] ;
450 -> 451 ;
452 [label="X[3] <= 0.54\ngini = 0.12\nsamples = 8\nvalue = [0, 1, 15, 0]", fillcolor="#46a4e7"] ;
451 -> 452 ;
453 [label="gini = 0.0\nsamples = 6\nvalue = [0, 0, 14, 0]", fillcolor="#399de5"] ;
452 -> 453 ;
454 [label="X[2] <= 0.0\ngini = 0.5\nsamples = 2\nvalue = [0, 1, 1, 0]", fillcolor="#ffffff"] ;
452 -> 454 ;
455 [label="gini = 0.0\nsamples = 1\nvalue = [0, 0, 1, 0]", fillcolor="#399de5"] ;
454 -> 455 ;
456 [label="gini = 0.0\nsamples = 1\nvalue = [0, 1, 0, 0]", fillcolor="#47e539"] ;
454 -> 456 ;
457 [label="X[2] <= 0.01\ngini = 0.38\nsamples = 6\nvalue = [0, 2, 6, 0]", fillcolor="#7bbeee"] ;
451 -> 457 ;
458 [label="gini = 0.0\nsamples = 4\nvalue = [0, 0, 6, 0]", fillcolor="#399de5"] ;
457 -> 458 ;
459 [label="gini = 0.0\nsamples = 2\nvalue = [0, 2, 0, 0]", fillcolor="#47e539"] ;
457 -> 459 ;
460 [label="gini = 0.0\nsamples = 4\nvalue = [0, 4, 0, 0]", fillcolor="#47e539"] ;
450 -> 460 ;
461 [label="X[0] <= 152.5\ngini = 0.57\nsamples = 36\nvalue = [6, 32, 20, 0]", fillcolor="#c5f7c0"] ;
419 -> 461 ;
462 [label="X[1] <= -3.35\ngini = 0.33\nsamples = 13\nvalue = [0, 5, 19, 0]", fillcolor="#6db7ec"] ;
461 -> 462 ;
463 [label="X[2] <= 0.01\ngini = 0.42\nsamples = 10\nvalue = [0, 5, 12, 0]", fillcolor="#8bc6f0"] ;
462 -> 463 ;
464 [label="gini = 0.0\nsamples = 6\nvalue = [0, 0, 11, 0]", fillcolor="#399de5"] ;
463 -> 464 ;
465 [label="X[0] <= 139.0\ngini = 0.28\nsamples = 4\nvalue = [0, 5, 1, 0]", fillcolor="#6cea61"] ;
463 -> 465 ;
466 [label="gini = 0.0\nsamples = 1\nvalue = [0, 0, 1, 0]", fillcolor="#399de5"] ;
465 -> 466 ;
467 [label="gini = 0.0\nsamples = 3\nvalue = [0, 5, 0, 0]", fillcolor="#47e539"] ;
465 -> 467 ;
468 [label="gini = 0.0\nsamples = 3\nvalue = [0, 0, 7, 0]", fillcolor="#399de5"] ;
462 -> 468 ;
469 [label="X[1] <= -3.85\ngini = 0.34\nsamples = 23\nvalue = [6, 27, 1, 0]", fillcolor="#75ec6b"] ;
461 -> 469 ;
470 [label="X[3] <= 0.54\ngini = 0.48\nsamples = 5\nvalue = [6, 4, 0, 0]", fillcolor="#f6d5bd"] ;
469 -> 470 ;
471 [label="gini = 0.0\nsamples = 2\nvalue = [0, 4, 0, 0]", fillcolor="#47e539"] ;
470 -> 471 ;
472 [label="gini = 0.0\nsamples = 3\nvalue = [6, 0, 0, 0]", fillcolor="#e58139"] ;
470 -> 472 ;
473 [label="X[0] <= 161.0\ngini = 0.08\nsamples = 18\nvalue = [0, 23, 1, 0]", fillcolor="#4fe642"] ;
469 -> 473 ;
474 [label="X[0] <= 158.5\ngini = 0.24\nsamples = 6\nvalue = [0, 6, 1, 0]", fillcolor="#66e95a"] ;
473 -> 474 ;
475 [label="gini = 0.0\nsamples = 5\nvalue = [0, 6, 0, 0]", fillcolor="#47e539"] ;
474 -> 475 ;
476 [label="gini = 0.0\nsamples = 1\nvalue = [0, 0, 1, 0]", fillcolor="#399de5"] ;
474 -> 476 ;
477 [label="gini = 0.0\nsamples = 12\nvalue = [0, 17, 0, 0]", fillcolor="#47e539"] ;
473 -> 477 ;
478 [label="X[0] <= 303.0\ngini = 0.53\nsamples = 447\nvalue = [296, 355, 23, 0]", fillcolor="#e2fbe0"] ;
378 -> 478 ;
479 [label="X[4] <= -0.5\ngini = 0.39\nsamples = 215\nvalue = [55, 241, 23, 0]", fillcolor="#7ded74"] ;
478 -> 479 ;
480 [label="X[0] <= 229.5\ngini = 0.18\nsamples = 170\nvalue = [2, 228, 23, 0]", fillcolor="#5be84f"] ;
479 -> 480 ;
481 [label="X[0] <= 227.5\ngini = 0.43\nsamples = 38\nvalue = [0, 37, 17, 0]", fillcolor="#9cf194"] ;
480 -> 481 ;
482 [label="X[0] <= 222.5\ngini = 0.4\nsamples = 33\nvalue = [0, 34, 13, 0]", fillcolor="#8def85"] ;
481 -> 482 ;
483 [label="X[3] <= 0.15\ngini = 0.47\nsamples = 21\nvalue = [0, 17, 10, 0]", fillcolor="#b3f4ad"] ;
482 -> 483 ;
484 [label="gini = 0.0\nsamples = 8\nvalue = [0, 11, 0, 0]", fillcolor="#47e539"] ;
483 -> 484 ;
485 [label="X[3] <= 0.54\ngini = 0.47\nsamples = 13\nvalue = [0, 6, 10, 0]", fillcolor="#b0d8f5"] ;
483 -> 485 ;
486 [label="X[2] <= 0.01\ngini = 0.17\nsamples = 9\nvalue = [0, 1, 10, 0]", fillcolor="#4da7e8"] ;
485 -> 486 ;
487 [label="gini = 0.0\nsamples = 7\nvalue = [0, 0, 9, 0]", fillcolor="#399de5"] ;
486 -> 487 ;
488 [label="X[1] <= -3.85\ngini = 0.5\nsamples = 2\nvalue = [0, 1, 1, 0]", fillcolor="#ffffff"] ;
486 -> 488 ;
489 [label="gini = 0.0\nsamples = 1\nvalue = [0, 1, 0, 0]", fillcolor="#47e539"] ;
488 -> 489 ;
490 [label="gini = 0.0\nsamples = 1\nvalue = [0, 0, 1, 0]", fillcolor="#399de5"] ;
488 -> 490 ;
491 [label="gini = 0.0\nsamples = 4\nvalue = [0, 5, 0, 0]", fillcolor="#47e539"] ;
485 -> 491 ;
492 [label="X[4] <= -3.5\ngini = 0.26\nsamples = 12\nvalue = [0, 17, 3, 0]", fillcolor="#67ea5c"] ;
482 -> 492 ;
493 [label="X[1] <= -3.61\ngini = 0.48\nsamples = 3\nvalue = [0, 2, 3, 0]", fillcolor="#bddef6"] ;
492 -> 493 ;
494 [label="gini = 0.0\nsamples = 2\nvalue = [0, 2, 0, 0]", fillcolor="#47e539"] ;
493 -> 494 ;
495 [label="gini = 0.0\nsamples = 1\nvalue = [0, 0, 3, 0]", fillcolor="#399de5"] ;
493 -> 495 ;
496 [label="gini = 0.0\nsamples = 9\nvalue = [0, 15, 0, 0]", fillcolor="#47e539"] ;
492 -> 496 ;
497 [label="X[4] <= -2.0\ngini = 0.49\nsamples = 5\nvalue = [0, 3, 4, 0]", fillcolor="#cee6f8"] ;
481 -> 497 ;
498 [label="gini = 0.0\nsamples = 3\nvalue = [0, 0, 4, 0]", fillcolor="#399de5"] ;
497 -> 498 ;
499 [label="gini = 0.0\nsamples = 2\nvalue = [0, 3, 0, 0]", fillcolor="#47e539"] ;
497 -> 499 ;
500 [label="X[0] <= 243.5\ngini = 0.08\nsamples = 132\nvalue = [2, 191, 6, 0]", fillcolor="#4fe641"] ;
480 -> 500 ;
501 [label="X[4] <= -1.5\ngini = 0.22\nsamples = 25\nvalue = [0, 34, 5, 0]", fillcolor="#62e956"] ;
500 -> 501 ;
502 [label="X[1] <= -3.85\ngini = 0.15\nsamples = 24\nvalue = [0, 34, 3, 0]", fillcolor="#57e74a"] ;
501 -> 502 ;
503 [label="X[0] <= 237.5\ngini = 0.44\nsamples = 6\nvalue = [0, 6, 3, 0]", fillcolor="#a3f29c"] ;
502 -> 503 ;
504 [label="gini = 0.0\nsamples = 2\nvalue = [0, 3, 0, 0]", fillcolor="#47e539"] ;
503 -> 504 ;
505 [label="X[3] <= 0.39\ngini = 0.5\nsamples = 4\nvalue = [0, 3, 3, 0]", fillcolor="#ffffff"] ;
503 -> 505 ;
506 [label="gini = 0.0\nsamples = 2\nvalue = [0, 0, 3, 0]", fillcolor="#399de5"] ;
505 -> 506 ;
507 [label="gini = 0.0\nsamples = 2\nvalue = [0, 3, 0, 0]", fillcolor="#47e539"] ;
505 -> 507 ;
508 [label="gini = 0.0\nsamples = 18\nvalue = [0, 28, 0, 0]", fillcolor="#47e539"] ;
502 -> 508 ;
509 [label="gini = 0.0\nsamples = 1\nvalue = [0, 0, 2, 0]", fillcolor="#399de5"] ;
501 -> 509 ;
510 [label="X[0] <= 300.5\ngini = 0.04\nsamples = 107\nvalue = [2, 157, 1, 0]", fillcolor="#4ae53d"] ;
500 -> 510 ;
511 [label="X[0] <= 248.5\ngini = 0.03\nsamples = 103\nvalue = [1, 152, 1, 0]", fillcolor="#49e53c"] ;
510 -> 511 ;
512 [label="X[0] <= 247.5\ngini = 0.12\nsamples = 13\nvalue = [0, 15, 1, 0]", fillcolor="#53e746"] ;
511 -> 512 ;
513 [label="gini = 0.0\nsamples = 12\nvalue = [0, 15, 0, 0]", fillcolor="#47e539"] ;
512 -> 513 ;
514 [label="gini = 0.0\nsamples = 1\nvalue = [0, 0, 1, 0]", fillcolor="#399de5"] ;
512 -> 514 ;
515 [label="X[4] <= -1.5\ngini = 0.01\nsamples = 90\nvalue = [1, 137, 0, 0]", fillcolor="#48e53a"] ;
511 -> 515 ;
516 [label="gini = 0.0\nsamples = 69\nvalue = [0, 105, 0, 0]", fillcolor="#47e539"] ;
515 -> 516 ;
517 [label="X[0] <= 294.0\ngini = 0.06\nsamples = 21\nvalue = [1, 32, 0, 0]", fillcolor="#4de63f"] ;
515 -> 517 ;
518 [label="gini = 0.0\nsamples = 19\nvalue = [0, 31, 0, 0]", fillcolor="#47e539"] ;
517 -> 518 ;
519 [label="X[3] <= 0.59\ngini = 0.5\nsamples = 2\nvalue = [1, 1, 0, 0]", fillcolor="#ffffff"] ;
517 -> 519 ;
520 [label="gini = 0.0\nsamples = 1\nvalue = [0, 1, 0, 0]", fillcolor="#47e539"] ;
519 -> 520 ;
521 [label="gini = 0.0\nsamples = 1\nvalue = [1, 0, 0, 0]", fillcolor="#e58139"] ;
519 -> 521 ;
522 [label="X[1] <= -3.85\ngini = 0.28\nsamples = 4\nvalue = [1, 5, 0, 0]", fillcolor="#6cea61"] ;
510 -> 522 ;
523 [label="gini = 0.0\nsamples = 2\nvalue = [0, 4, 0, 0]", fillcolor="#47e539"] ;
522 -> 523 ;
524 [label="X[2] <= 0.01\ngini = 0.5\nsamples = 2\nvalue = [1, 1, 0, 0]", fillcolor="#ffffff"] ;
522 -> 524 ;
525 [label="gini = 0.0\nsamples = 1\nvalue = [0, 1, 0, 0]", fillcolor="#47e539"] ;
524 -> 525 ;
526 [label="gini = 0.0\nsamples = 1\nvalue = [1, 0, 0, 0]", fillcolor="#e58139"] ;
524 -> 526 ;
527 [label="X[0] <= 232.0\ngini = 0.32\nsamples = 45\nvalue = [53, 13, 0, 0]", fillcolor="#eba06a"] ;
479 -> 527 ;
528 [label="X[0] <= 215.5\ngini = 0.5\nsamples = 7\nvalue = [6, 7, 0, 0]", fillcolor="#e5fbe3"] ;
527 -> 528 ;
529 [label="gini = 0.0\nsamples = 1\nvalue = [3, 0, 0, 0]", fillcolor="#e58139"] ;
528 -> 529 ;
530 [label="X[1] <= -3.46\ngini = 0.42\nsamples = 6\nvalue = [3, 7, 0, 0]", fillcolor="#96f08e"] ;
528 -> 530 ;
531 [label="X[3] <= 0.15\ngini = 0.5\nsamples = 3\nvalue = [3, 3, 0, 0]", fillcolor="#ffffff"] ;
530 -> 531 ;
532 [label="gini = 0.0\nsamples = 1\nvalue = [0, 3, 0, 0]", fillcolor="#47e539"] ;
531 -> 532 ;
533 [label="gini = 0.0\nsamples = 2\nvalue = [3, 0, 0, 0]", fillcolor="#e58139"] ;
531 -> 533 ;
534 [label="gini = 0.0\nsamples = 3\nvalue = [0, 4, 0, 0]", fillcolor="#47e539"] ;
530 -> 534 ;
535 [label="X[0] <= 265.5\ngini = 0.2\nsamples = 38\nvalue = [47, 6, 0, 0]", fillcolor="#e89152"] ;
527 -> 535 ;
536 [label="gini = 0.0\nsamples = 17\nvalue = [23, 0, 0, 0]", fillcolor="#e58139"] ;
535 -> 536 ;
537 [label="X[3] <= 0.15\ngini = 0.32\nsamples = 21\nvalue = [24, 6, 0, 0]", fillcolor="#eca06a"] ;
535 -> 537 ;
538 [label="X[2] <= 0.01\ngini = 0.24\nsamples = 4\nvalue = [1, 6, 0, 0]", fillcolor="#66e95a"] ;
537 -> 538 ;
539 [label="gini = 0.0\nsamples = 3\nvalue = [0, 6, 0, 0]", fillcolor="#47e539"] ;
538 -> 539 ;
540 [label="gini = 0.0\nsamples = 1\nvalue = [1, 0, 0, 0]", fillcolor="#e58139"] ;
538 -> 540 ;
541 [label="gini = 0.0\nsamples = 17\nvalue = [23, 0, 0, 0]", fillcolor="#e58139"] ;
537 -> 541 ;
542 [label="X[3] <= 0.54\ngini = 0.44\nsamples = 232\nvalue = [241, 114, 0, 0]", fillcolor="#f1bd97"] ;
478 -> 542 ;
543 [label="X[4] <= -0.5\ngini = 0.49\nsamples = 129\nvalue = [87, 110, 0, 0]", fillcolor="#d9fad6"] ;
542 -> 543 ;
544 [label="X[1] <= -3.46\ngini = 0.4\nsamples = 100\nvalue = [42, 110, 0, 0]", fillcolor="#8def85"] ;
543 -> 544 ;
545 [label="X[0] <= 352.5\ngini = 0.45\nsamples = 55\nvalue = [27, 52, 0, 0]", fillcolor="#a7f2a0"] ;
544 -> 545 ;
546 [label="X[2] <= 0.0\ngini = 0.1\nsamples = 28\nvalue = [2, 37, 0, 0]", fillcolor="#51e644"] ;
545 -> 546 ;
547 [label="X[3] <= 0.39\ngini = 0.28\nsamples = 6\nvalue = [1, 5, 0, 0]", fillcolor="#6cea61"] ;
546 -> 547 ;
548 [label="gini = 0.0\nsamples = 4\nvalue = [0, 4, 0, 0]", fillcolor="#47e539"] ;
547 -> 548 ;
549 [label="X[4] <= -1.5\ngini = 0.5\nsamples = 2\nvalue = [1, 1, 0, 0]", fillcolor="#ffffff"] ;
547 -> 549 ;
550 [label="gini = 0.0\nsamples = 1\nvalue = [1, 0, 0, 0]", fillcolor="#e58139"] ;
549 -> 550 ;
551 [label="gini = 0.0\nsamples = 1\nvalue = [0, 1, 0, 0]", fillcolor="#47e539"] ;
549 -> 551 ;
552 [label="X[3] <= 0.39\ngini = 0.06\nsamples = 22\nvalue = [1, 32, 0, 0]", fillcolor="#4de63f"] ;
546 -> 552 ;
553 [label="gini = 0.0\nsamples = 13\nvalue = [0, 23, 0, 0]", fillcolor="#47e539"] ;
552 -> 553 ;
554 [label="X[1] <= -3.61\ngini = 0.18\nsamples = 9\nvalue = [1, 9, 0, 0]", fillcolor="#5be84f"] ;
552 -> 554 ;
555 [label="X[2] <= 0.01\ngini = 0.38\nsamples = 4\nvalue = [1, 3, 0, 0]", fillcolor="#84ee7b"] ;
554 -> 555 ;
556 [label="gini = 0.0\nsamples = 3\nvalue = [0, 3, 0, 0]", fillcolor="#47e539"] ;
555 -> 556 ;
557 [label="gini = 0.0\nsamples = 1\nvalue = [1, 0, 0, 0]", fillcolor="#e58139"] ;
555 -> 557 ;
558 [label="gini = 0.0\nsamples = 5\nvalue = [0, 6, 0, 0]", fillcolor="#47e539"] ;
554 -> 558 ;
559 [label="X[3] <= 0.39\ngini = 0.47\nsamples = 27\nvalue = [25, 15, 0, 0]", fillcolor="#f5cdb0"] ;
545 -> 559 ;
560 [label="X[0] <= 379.5\ngini = 0.48\nsamples = 16\nvalue = [10, 15, 0, 0]", fillcolor="#c2f6bd"] ;
559 -> 560 ;
561 [label="X[2] <= 0.01\ngini = 0.33\nsamples = 11\nvalue = [4, 15, 0, 0]", fillcolor="#78ec6e"] ;
560 -> 561 ;
562 [label="gini = 0.0\nsamples = 9\nvalue = [0, 15, 0, 0]", fillcolor="#47e539"] ;
561 -> 562 ;
563 [label="gini = 0.0\nsamples = 2\nvalue = [4, 0, 0, 0]", fillcolor="#e58139"] ;
561 -> 563 ;
564 [label="gini = 0.0\nsamples = 5\nvalue = [6, 0, 0, 0]", fillcolor="#e58139"] ;
560 -> 564 ;
565 [label="gini = 0.0\nsamples = 11\nvalue = [15, 0, 0, 0]", fillcolor="#e58139"] ;
559 -> 565 ;
566 [label="X[0] <= 361.0\ngini = 0.33\nsamples = 45\nvalue = [15, 58, 0, 0]", fillcolor="#77ec6c"] ;
544 -> 566 ;
567 [label="X[3] <= 0.39\ngini = 0.1\nsamples = 34\nvalue = [3, 52, 0, 0]", fillcolor="#52e644"] ;
566 -> 567 ;
568 [label="gini = 0.0\nsamples = 24\nvalue = [0, 40, 0, 0]", fillcolor="#47e539"] ;
567 -> 568 ;
569 [label="X[0] <= 342.0\ngini = 0.32\nsamples = 10\nvalue = [3, 12, 0, 0]", fillcolor="#75ec6a"] ;
567 -> 569 ;
570 [label="gini = 0.0\nsamples = 7\nvalue = [0, 12, 0, 0]", fillcolor="#47e539"] ;
569 -> 570 ;
571 [label="gini = 0.0\nsamples = 3\nvalue = [3, 0, 0, 0]", fillcolor="#e58139"] ;
569 -> 571 ;
572 [label="X[0] <= 382.5\ngini = 0.44\nsamples = 11\nvalue = [12, 6, 0, 0]", fillcolor="#f2c09c"] ;
566 -> 572 ;
573 [label="X[3] <= 0.15\ngini = 0.5\nsamples = 8\nvalue = [7, 6, 0, 0]", fillcolor="#fbede3"] ;
572 -> 573 ;
574 [label="gini = 0.0\nsamples = 3\nvalue = [0, 5, 0, 0]", fillcolor="#47e539"] ;
573 -> 574 ;
575 [label="X[0] <= 371.5\ngini = 0.22\nsamples = 5\nvalue = [7, 1, 0, 0]", fillcolor="#e99355"] ;
573 -> 575 ;
576 [label="gini = 0.0\nsamples = 4\nvalue = [7, 0, 0, 0]", fillcolor="#e58139"] ;
575 -> 576 ;
577 [label="gini = 0.0\nsamples = 1\nvalue = [0, 1, 0, 0]", fillcolor="#47e539"] ;
575 -> 577 ;
578 [label="gini = 0.0\nsamples = 3\nvalue = [5, 0, 0, 0]", fillcolor="#e58139"] ;
572 -> 578 ;
579 [label="gini = 0.0\nsamples = 29\nvalue = [45, 0, 0, 0]", fillcolor="#e58139"] ;
543 -> 579 ;
580 [label="X[0] <= 312.5\ngini = 0.05\nsamples = 103\nvalue = [154, 4, 0, 0]", fillcolor="#e6843e"] ;
542 -> 580 ;
581 [label="X[0] <= 310.5\ngini = 0.46\nsamples = 8\nvalue = [7, 4, 0, 0]", fillcolor="#f4c9aa"] ;
580 -> 581 ;
582 [label="X[3] <= 0.65\ngini = 0.22\nsamples = 6\nvalue = [7, 1, 0, 0]", fillcolor="#e99355"] ;
581 -> 582 ;
583 [label="X[2] <= 0.0\ngini = 0.44\nsamples = 2\nvalue = [2, 1, 0, 0]", fillcolor="#f2c09c"] ;
582 -> 583 ;
584 [label="gini = 0.0\nsamples = 1\nvalue = [0, 1, 0, 0]", fillcolor="#47e539"] ;
583 -> 584 ;
585 [label="gini = 0.0\nsamples = 1\nvalue = [2, 0, 0, 0]", fillcolor="#e58139"] ;
583 -> 585 ;
586 [label="gini = 0.0\nsamples = 4\nvalue = [5, 0, 0, 0]", fillcolor="#e58139"] ;
582 -> 586 ;
587 [label="gini = 0.0\nsamples = 2\nvalue = [0, 3, 0, 0]", fillcolor="#47e539"] ;
581 -> 587 ;
588 [label="gini = 0.0\nsamples = 95\nvalue = [147, 0, 0, 0]", fillcolor="#e58139"] ;
580 -> 588 ;
589 [label="X[4] <= -0.5\ngini = 0.7\nsamples = 5399\nvalue = [3709, 1400, 1584, 1826]", fillcolor="#f8dcc7"] ;
1 -> 589 ;
590 [label="X[5] <= 0.06\ngini = 0.74\nsamples = 4343\nvalue = [2279, 1310, 1534, 1763]", fillcolor="#fcf2eb"] ;
589 -> 590 ;
591 [label="X[3] <= 0.54\ngini = 0.71\nsamples = 3187\nvalue = [443, 1310, 1534, 1763]", fillcolor="#fcf2fd"] ;
590 -> 591 ;
592 [label="X[5] <= 0.01\ngini = 0.61\nsamples = 1779\nvalue = [27, 445, 918, 1444]", fillcolor="#f4c9f8"] ;
591 -> 592 ;
593 [label="X[2] <= 0.01\ngini = 0.47\nsamples = 1121\nvalue = [0, 147, 415, 1199]", fillcolor="#e88cf0"] ;
592 -> 593 ;
594 [label="X[3] <= 0.39\ngini = 0.13\nsamples = 683\nvalue = [0, 0, 78, 998]", fillcolor="#da48e7"] ;
593 -> 594 ;
595 [label="gini = 0.0\nsamples = 400\nvalue = [0, 0, 0, 623]", fillcolor="#d739e5"] ;
594 -> 595 ;
596 [label="X[5] <= 0.0\ngini = 0.29\nsamples = 283\nvalue = [0, 0, 78, 375]", fillcolor="#df62ea"] ;
594 -> 596 ;
597 [label="X[0] <= 882.0\ngini = 0.09\nsamples = 133\nvalue = [0, 0, 10, 199]", fillcolor="#d943e6"] ;
596 -> 597 ;
598 [label="gini = 0.0\nsamples = 111\nvalue = [0, 0, 0, 174]", fillcolor="#d739e5"] ;
597 -> 598 ;
599 [label="X[2] <= 0.0\ngini = 0.41\nsamples = 22\nvalue = [0, 0, 10, 25]", fillcolor="#e788ef"] ;
597 -> 599 ;
600 [label="gini = 0.0\nsamples = 14\nvalue = [0, 0, 0, 25]", fillcolor="#d739e5"] ;
599 -> 600 ;
601 [label="gini = 0.0\nsamples = 8\nvalue = [0, 0, 10, 0]", fillcolor="#399de5"] ;
599 -> 601 ;
602 [label="X[0] <= 867.5\ngini = 0.4\nsamples = 150\nvalue = [0, 0, 68, 176]", fillcolor="#e686ef"] ;
596 -> 602 ;
603 [label="X[0] <= 833.5\ngini = 0.04\nsamples = 112\nvalue = [0, 0, 4, 175]", fillcolor="#d83ee6"] ;
602 -> 603 ;
604 [label="gini = 0.0\nsamples = 104\nvalue = [0, 0, 0, 167]", fillcolor="#d739e5"] ;
603 -> 604 ;
605 [label="X[0] <= 835.0\ngini = 0.44\nsamples = 8\nvalue = [0, 0, 4, 8]", fillcolor="#eb9cf2"] ;
603 -> 605 ;
606 [label="gini = 0.0\nsamples = 1\nvalue = [0, 0, 2, 0]", fillcolor="#399de5"] ;
605 -> 606 ;
607 [label="X[0] <= 847.0\ngini = 0.32\nsamples = 7\nvalue = [0, 0, 2, 8]", fillcolor="#e16aec"] ;
605 -> 607 ;
608 [label="X[1] <= -3.55\ngini = 0.44\nsamples = 4\nvalue = [0, 0, 2, 4]", fillcolor="#eb9cf2"] ;
607 -> 608 ;
609 [label="X[4] <= -3.5\ngini = 0.32\nsamples = 3\nvalue = [0, 0, 1, 4]", fillcolor="#e16aec"] ;
608 -> 609 ;
610 [label="X[2] <= 0.0\ngini = 0.38\nsamples = 2\nvalue = [0, 0, 1, 3]", fillcolor="#e47bee"] ;
609 -> 610 ;
611 [label="gini = 0.0\nsamples = 1\nvalue = [0, 0, 0, 3]", fillcolor="#d739e5"] ;
610 -> 611 ;
612 [label="gini = 0.0\nsamples = 1\nvalue = [0, 0, 1, 0]", fillcolor="#399de5"] ;
610 -> 612 ;
613 [label="gini = 0.0\nsamples = 1\nvalue = [0, 0, 0, 1]", fillcolor="#d739e5"] ;
609 -> 613 ;
614 [label="gini = 0.0\nsamples = 1\nvalue = [0, 0, 1, 0]", fillcolor="#399de5"] ;
608 -> 614 ;
615 [label="gini = 0.0\nsamples = 3\nvalue = [0, 0, 0, 4]", fillcolor="#d739e5"] ;
607 -> 615 ;
616 [label="X[0] <= 875.5\ngini = 0.03\nsamples = 38\nvalue = [0, 0, 64, 1]", fillcolor="#3c9fe5"] ;
602 -> 616 ;
617 [label="X[0] <= 871.5\ngini = 0.44\nsamples = 2\nvalue = [0, 0, 2, 1]", fillcolor="#9ccef2"] ;
616 -> 617 ;
618 [label="gini = 0.0\nsamples = 1\nvalue = [0, 0, 2, 0]", fillcolor="#399de5"] ;
617 -> 618 ;
619 [label="gini = 0.0\nsamples = 1\nvalue = [0, 0, 0, 1]", fillcolor="#d739e5"] ;
617 -> 619 ;
620 [label="gini = 0.0\nsamples = 36\nvalue = [0, 0, 62, 0]", fillcolor="#399de5"] ;
616 -> 620 ;
621 [label="X[0] <= 552.5\ngini = 0.63\nsamples = 438\nvalue = [0, 147, 337, 201]", fillcolor="#c7e3f8"] ;
593 -> 621 ;
622 [label="X[3] <= 0.39\ngini = 0.11\nsamples = 117\nvalue = [0, 0, 10, 167]", fillcolor="#d945e7"] ;
621 -> 622 ;
623 [label="X[0] <= 540.5\ngini = 0.02\nsamples = 75\nvalue = [0, 0, 1, 107]", fillcolor="#d73be5"] ;
622 -> 623 ;
624 [label="gini = 0.0\nsamples = 68\nvalue = [0, 0, 0, 95]", fillcolor="#d739e5"] ;
623 -> 624 ;
625 [label="X[4] <= -1.5\ngini = 0.14\nsamples = 7\nvalue = [0, 0, 1, 12]", fillcolor="#da49e7"] ;
623 -> 625 ;
626 [label="gini = 0.0\nsamples = 6\nvalue = [0, 0, 0, 12]", fillcolor="#d739e5"] ;
625 -> 626 ;
627 [label="gini = 0.0\nsamples = 1\nvalue = [0, 0, 1, 0]", fillcolor="#399de5"] ;
625 -> 627 ;
628 [label="X[5] <= 0.0\ngini = 0.23\nsamples = 42\nvalue = [0, 0, 9, 60]", fillcolor="#dd57e9"] ;
622 -> 628 ;
629 [label="X[0] <= 534.0\ngini = 0.05\nsamples = 26\nvalue = [0, 0, 1, 37]", fillcolor="#d83ee6"] ;
628 -> 629 ;
630 [label="gini = 0.0\nsamples = 25\nvalue = [0, 0, 0, 37]", fillcolor="#d739e5"] ;
629 -> 630 ;
631 [label="gini = 0.0\nsamples = 1\nvalue = [0, 0, 1, 0]", fillcolor="#399de5"] ;
629 -> 631 ;
632 [label="X[0] <= 505.0\ngini = 0.38\nsamples = 16\nvalue = [0, 0, 8, 23]", fillcolor="#e57eee"] ;
628 -> 632 ;
633 [label="gini = 0.0\nsamples = 13\nvalue = [0, 0, 0, 23]", fillcolor="#d739e5"] ;
632 -> 633 ;
634 [label="gini = 0.0\nsamples = 3\nvalue = [0, 0, 8, 0]", fillcolor="#399de5"] ;
632 -> 634 ;
635 [label="X[0] <= 811.5\ngini = 0.5\nsamples = 321\nvalue = [0, 147, 327, 34]", fillcolor="#9ccef2"] ;
621 -> 635 ;
636 [label="X[0] <= 629.5\ngini = 0.29\nsamples = 194\nvalue = [0, 17, 253, 34]", fillcolor="#5eb0ea"] ;
635 -> 636 ;
637 [label="X[3] <= 0.15\ngini = 0.46\nsamples = 61\nvalue = [0, 0, 57, 33]", fillcolor="#acd6f4"] ;
636 -> 637 ;
638 [label="X[0] <= 628.5\ngini = 0.12\nsamples = 20\nvalue = [0, 0, 2, 28]", fillcolor="#da47e7"] ;
637 -> 638 ;
639 [label="gini = 0.0\nsamples = 18\nvalue = [0, 0, 0, 26]", fillcolor="#d739e5"] ;
638 -> 639 ;
640 [label="X[1] <= -3.76\ngini = 0.5\nsamples = 2\nvalue = [0, 0, 2, 2]", fillcolor="#ffffff"] ;
638 -> 640 ;
641 [label="gini = 0.0\nsamples = 1\nvalue = [0, 0, 0, 2]", fillcolor="#d739e5"] ;
640 -> 641 ;
642 [label="gini = 0.0\nsamples = 1\nvalue = [0, 0, 2, 0]", fillcolor="#399de5"] ;
640 -> 642 ;
643 [label="X[3] <= 0.39\ngini = 0.15\nsamples = 41\nvalue = [0, 0, 55, 5]", fillcolor="#4ba6e7"] ;
637 -> 643 ;
644 [label="X[0] <= 577.5\ngini = 0.29\nsamples = 17\nvalue = [0, 0, 23, 5]", fillcolor="#64b2eb"] ;
643 -> 644 ;
645 [label="X[0] <= 568.5\ngini = 0.5\nsamples = 6\nvalue = [0, 0, 6, 5]", fillcolor="#deeffb"] ;
644 -> 645 ;
646 [label="gini = 0.0\nsamples = 3\nvalue = [0, 0, 6, 0]", fillcolor="#399de5"] ;
645 -> 646 ;
647 [label="gini = 0.0\nsamples = 3\nvalue = [0, 0, 0, 5]", fillcolor="#d739e5"] ;
645 -> 647 ;
648 [label="gini = 0.0\nsamples = 11\nvalue = [0, 0, 17, 0]", fillcolor="#399de5"] ;
644 -> 648 ;
649 [label="gini = 0.0\nsamples = 24\nvalue = [0, 0, 32, 0]", fillcolor="#399de5"] ;
643 -> 649 ;
650 [label="X[0] <= 754.0\ngini = 0.15\nsamples = 133\nvalue = [0, 17, 196, 1]", fillcolor="#4ba6e7"] ;
636 -> 650 ;
651 [label="X[0] <= 668.0\ngini = 0.01\nsamples = 93\nvalue = [0, 0, 147, 1]", fillcolor="#3a9ee5"] ;
650 -> 651 ;
652 [label="X[0] <= 666.0\ngini = 0.06\nsamples = 25\nvalue = [0, 0, 32, 1]", fillcolor="#3fa0e6"] ;
651 -> 652 ;
653 [label="gini = 0.0\nsamples = 24\nvalue = [0, 0, 32, 0]", fillcolor="#399de5"] ;
652 -> 653 ;
654 [label="gini = 0.0\nsamples = 1\nvalue = [0, 0, 0, 1]", fillcolor="#d739e5"] ;
652 -> 654 ;
655 [label="gini = 0.0\nsamples = 68\nvalue = [0, 0, 115, 0]", fillcolor="#399de5"] ;
651 -> 655 ;
656 [label="X[3] <= 0.39\ngini = 0.38\nsamples = 40\nvalue = [0, 17, 49, 0]", fillcolor="#7ebfee"] ;
650 -> 656 ;
657 [label="gini = 0.0\nsamples = 25\nvalue = [0, 0, 40, 0]", fillcolor="#399de5"] ;
656 -> 657 ;
658 [label="X[1] <= -3.35\ngini = 0.45\nsamples = 15\nvalue = [0, 17, 9, 0]", fillcolor="#a8f3a2"] ;
656 -> 658 ;
659 [label="X[5] <= 0.0\ngini = 0.31\nsamples = 13\nvalue = [0, 17, 4, 0]", fillcolor="#72eb68"] ;
658 -> 659 ;
660 [label="X[1] <= -3.7\ngini = 0.49\nsamples = 5\nvalue = [0, 3, 4, 0]", fillcolor="#cee6f8"] ;
659 -> 660 ;
661 [label="gini = 0.0\nsamples = 3\nvalue = [0, 0, 4, 0]", fillcolor="#399de5"] ;
660 -> 661 ;
662 [label="gini = 0.0\nsamples = 2\nvalue = [0, 3, 0, 0]", fillcolor="#47e539"] ;
660 -> 662 ;
663 [label="gini = 0.0\nsamples = 8\nvalue = [0, 14, 0, 0]", fillcolor="#47e539"] ;
659 -> 663 ;
664 [label="gini = 0.0\nsamples = 2\nvalue = [0, 0, 5, 0]", fillcolor="#399de5"] ;
658 -> 664 ;
665 [label="X[0] <= 823.0\ngini = 0.46\nsamples = 127\nvalue = [0, 130, 74, 0]", fillcolor="#b0f4aa"] ;
635 -> 665 ;
666 [label="gini = 0.0\nsamples = 7\nvalue = [0, 13, 0, 0]", fillcolor="#47e539"] ;
665 -> 666 ;
667 [label="X[3] <= 0.15\ngini = 0.47\nsamples = 120\nvalue = [0, 117, 74, 0]", fillcolor="#bbf5b6"] ;
665 -> 667 ;
668 [label="gini = 0.0\nsamples = 37\nvalue = [0, 0, 58, 0]", fillcolor="#399de5"] ;
667 -> 668 ;
669 [label="X[0] <= 868.5\ngini = 0.21\nsamples = 83\nvalue = [0, 117, 16, 0]", fillcolor="#60e954"] ;
667 -> 669 ;
670 [label="X[3] <= 0.39\ngini = 0.49\nsamples = 20\nvalue = [0, 19, 14, 0]", fillcolor="#cff8cb"] ;
669 -> 670 ;
671 [label="X[1] <= -3.61\ngini = 0.39\nsamples = 11\nvalue = [0, 5, 14, 0]", fillcolor="#80c0ee"] ;
670 -> 671 ;
672 [label="gini = 0.0\nsamples = 5\nvalue = [0, 0, 8, 0]", fillcolor="#399de5"] ;
671 -> 672 ;
673 [label="X[0] <= 853.0\ngini = 0.5\nsamples = 6\nvalue = [0, 5, 6, 0]", fillcolor="#deeffb"] ;
671 -> 673 ;
674 [label="gini = 0.0\nsamples = 3\nvalue = [0, 0, 3, 0]", fillcolor="#399de5"] ;
673 -> 674 ;
675 [label="X[0] <= 865.0\ngini = 0.47\nsamples = 3\nvalue = [0, 5, 3, 0]", fillcolor="#b5f5b0"] ;
673 -> 675 ;
676 [label="gini = 0.0\nsamples = 2\nvalue = [0, 5, 0, 0]", fillcolor="#47e539"] ;
675 -> 676 ;
677 [label="gini = 0.0\nsamples = 1\nvalue = [0, 0, 3, 0]", fillcolor="#399de5"] ;
675 -> 677 ;
678 [label="gini = 0.0\nsamples = 9\nvalue = [0, 14, 0, 0]", fillcolor="#47e539"] ;
670 -> 678 ;
679 [label="X[3] <= 0.39\ngini = 0.04\nsamples = 63\nvalue = [0, 98, 2, 0]", fillcolor="#4be63d"] ;
669 -> 679 ;
680 [label="X[0] <= 914.5\ngini = 0.11\nsamples = 21\nvalue = [0, 31, 2, 0]", fillcolor="#53e746"] ;
679 -> 680 ;
681 [label="X[1] <= -3.46\ngini = 0.35\nsamples = 7\nvalue = [0, 7, 2, 0]", fillcolor="#7cec72"] ;
680 -> 681 ;
682 [label="gini = 0.0\nsamples = 3\nvalue = [0, 5, 0, 0]", fillcolor="#47e539"] ;
681 -> 682 ;
683 [label="X[4] <= -2.5\ngini = 0.5\nsamples = 4\nvalue = [0, 2, 2, 0]", fillcolor="#ffffff"] ;
681 -> 683 ;
684 [label="gini = 0.0\nsamples = 2\nvalue = [0, 2, 0, 0]", fillcolor="#47e539"] ;
683 -> 684 ;
685 [label="gini = 0.0\nsamples = 2\nvalue = [0, 0, 2, 0]", fillcolor="#399de5"] ;
683 -> 685 ;
686 [label="gini = 0.0\nsamples = 14\nvalue = [0, 24, 0, 0]", fillcolor="#47e539"] ;
680 -> 686 ;
687 [label="gini = 0.0\nsamples = 42\nvalue = [0, 67, 0, 0]", fillcolor="#47e539"] ;
679 -> 687 ;
688 [label="X[0] <= 776.5\ngini = 0.65\nsamples = 658\nvalue = [27, 298, 503, 245]", fillcolor="#cbe5f8"] ;
592 -> 688 ;
689 [label="X[2] <= 0.01\ngini = 0.55\nsamples = 411\nvalue = [0, 50, 368, 245]", fillcolor="#c5e2f7"] ;
688 -> 689 ;
690 [label="X[3] <= 0.15\ngini = 0.49\nsamples = 272\nvalue = [0, 1, 177, 243]", fillcolor="#f4c9f8"] ;
689 -> 690 ;
691 [label="X[4] <= -1.5\ngini = 0.21\nsamples = 86\nvalue = [0, 0, 17, 125]", fillcolor="#dc54e9"] ;
690 -> 691 ;
692 [label="X[4] <= -3.5\ngini = 0.15\nsamples = 72\nvalue = [0, 0, 10, 113]", fillcolor="#db4be7"] ;
691 -> 692 ;
693 [label="X[1] <= -3.35\ngini = 0.3\nsamples = 23\nvalue = [0, 0, 6, 26]", fillcolor="#e067eb"] ;
692 -> 693 ;
694 [label="X[2] <= 0.0\ngini = 0.24\nsamples = 20\nvalue = [0, 0, 4, 24]", fillcolor="#de5ae9"] ;
693 -> 694 ;
695 [label="gini = 0.0\nsamples = 12\nvalue = [0, 0, 0, 16]", fillcolor="#d739e5"] ;
694 -> 695 ;
696 [label="X[0] <= 687.5\ngini = 0.44\nsamples = 8\nvalue = [0, 0, 4, 8]", fillcolor="#eb9cf2"] ;
694 -> 696 ;
697 [label="gini = 0.0\nsamples = 5\nvalue = [0, 0, 0, 8]", fillcolor="#d739e5"] ;
696 -> 697 ;
698 [label="gini = 0.0\nsamples = 3\nvalue = [0, 0, 4, 0]", fillcolor="#399de5"] ;
696 -> 698 ;
699 [label="X[2] <= 0.0\ngini = 0.5\nsamples = 3\nvalue = [0, 0, 2, 2]", fillcolor="#ffffff"] ;
693 -> 699 ;
700 [label="X[0] <= 625.5\ngini = 0.44\nsamples = 2\nvalue = [0, 0, 2, 1]", fillcolor="#9ccef2"] ;
699 -> 700 ;
701 [label="gini = 0.0\nsamples = 1\nvalue = [0, 0, 0, 1]", fillcolor="#d739e5"] ;
700 -> 701 ;
702 [label="gini = 0.0\nsamples = 1\nvalue = [0, 0, 2, 0]", fillcolor="#399de5"] ;
700 -> 702 ;
703 [label="gini = 0.0\nsamples = 1\nvalue = [0, 0, 0, 1]", fillcolor="#d739e5"] ;
699 -> 703 ;
704 [label="X[0] <= 715.5\ngini = 0.08\nsamples = 49\nvalue = [0, 0, 4, 87]", fillcolor="#d942e6"] ;
692 -> 704 ;
705 [label="gini = 0.0\nsamples = 46\nvalue = [0, 0, 0, 87]", fillcolor="#d739e5"] ;
704 -> 705 ;
706 [label="gini = 0.0\nsamples = 3\nvalue = [0, 0, 4, 0]", fillcolor="#399de5"] ;
704 -> 706 ;
707 [label="X[1] <= -3.35\ngini = 0.47\nsamples = 14\nvalue = [0, 0, 7, 12]", fillcolor="#eeacf4"] ;
691 -> 707 ;
708 [label="X[0] <= 681.5\ngini = 0.42\nsamples = 12\nvalue = [0, 0, 5, 12]", fillcolor="#e88bf0"] ;
707 -> 708 ;
709 [label="X[2] <= 0.0\ngini = 0.14\nsamples = 9\nvalue = [0, 0, 1, 12]", fillcolor="#da49e7"] ;
708 -> 709 ;
710 [label="gini = 0.0\nsamples = 1\nvalue = [0, 0, 0, 1]", fillcolor="#d739e5"] ;
709 -> 710 ;
711 [label="X[0] <= 619.5\ngini = 0.15\nsamples = 8\nvalue = [0, 0, 1, 11]", fillcolor="#db4be7"] ;
709 -> 711 ;
712 [label="gini = 0.0\nsamples = 6\nvalue = [0, 0, 0, 9]", fillcolor="#d739e5"] ;
711 -> 712 ;
713 [label="X[0] <= 653.0\ngini = 0.44\nsamples = 2\nvalue = [0, 0, 1, 2]", fillcolor="#eb9cf2"] ;
711 -> 713 ;
714 [label="gini = 0.0\nsamples = 1\nvalue = [0, 0, 1, 0]", fillcolor="#399de5"] ;
713 -> 714 ;
715 [label="gini = 0.0\nsamples = 1\nvalue = [0, 0, 0, 2]", fillcolor="#d739e5"] ;
713 -> 715 ;
716 [label="gini = 0.0\nsamples = 3\nvalue = [0, 0, 4, 0]", fillcolor="#399de5"] ;
708 -> 716 ;
717 [label="gini = 0.0\nsamples = 2\nvalue = [0, 0, 2, 0]", fillcolor="#399de5"] ;
707 -> 717 ;
718 [label="X[4] <= -3.5\ngini = 0.49\nsamples = 186\nvalue = [0, 1, 160, 118]", fillcolor="#cbe5f8"] ;
690 -> 718 ;
719 [label="X[0] <= 524.5\ngini = 0.38\nsamples = 34\nvalue = [0, 1, 37, 11]", fillcolor="#78bced"] ;
718 -> 719 ;
720 [label="gini = 0.0\nsamples = 7\nvalue = [0, 0, 0, 11]", fillcolor="#d739e5"] ;
719 -> 720 ;
721 [label="X[0] <= 754.0\ngini = 0.05\nsamples = 27\nvalue = [0, 1, 37, 0]", fillcolor="#3ea0e6"] ;
719 -> 721 ;
722 [label="gini = 0.0\nsamples = 26\nvalue = [0, 0, 37, 0]", fillcolor="#399de5"] ;
721 -> 722 ;
723 [label="gini = 0.0\nsamples = 1\nvalue = [0, 1, 0, 0]", fillcolor="#47e539"] ;
721 -> 723 ;
724 [label="X[4] <= -1.5\ngini = 0.5\nsamples = 152\nvalue = [0, 0, 123, 107]", fillcolor="#e5f2fc"] ;
718 -> 724 ;
725 [label="X[1] <= -3.85\ngini = 0.5\nsamples = 100\nvalue = [0, 0, 70, 78]", fillcolor="#fbebfc"] ;
724 -> 725 ;
726 [label="X[3] <= 0.39\ngini = 0.42\nsamples = 17\nvalue = [0, 0, 7, 16]", fillcolor="#e890f0"] ;
725 -> 726 ;
727 [label="X[0] <= 597.0\ngini = 0.24\nsamples = 9\nvalue = [0, 0, 2, 12]", fillcolor="#de5ae9"] ;
726 -> 727 ;
728 [label="gini = 0.0\nsamples = 7\nvalue = [0, 0, 0, 12]", fillcolor="#d739e5"] ;
727 -> 728 ;
729 [label="gini = 0.0\nsamples = 2\nvalue = [0, 0, 2, 0]", fillcolor="#399de5"] ;
727 -> 729 ;
730 [label="X[4] <= -2.5\ngini = 0.49\nsamples = 8\nvalue = [0, 0, 5, 4]", fillcolor="#d7ebfa"] ;
726 -> 730 ;
731 [label="X[0] <= 579.5\ngini = 0.5\nsamples = 3\nvalue = [0, 0, 2, 2]", fillcolor="#ffffff"] ;
730 -> 731 ;
732 [label="gini = 0.0\nsamples = 1\nvalue = [0, 0, 0, 2]", fillcolor="#d739e5"] ;
731 -> 732 ;
733 [label="gini = 0.0\nsamples = 2\nvalue = [0, 0, 2, 0]", fillcolor="#399de5"] ;
731 -> 733 ;
734 [label="X[0] <= 533.5\ngini = 0.48\nsamples = 5\nvalue = [0, 0, 3, 2]", fillcolor="#bddef6"] ;
730 -> 734 ;
735 [label="gini = 0.0\nsamples = 2\nvalue = [0, 0, 0, 2]", fillcolor="#d739e5"] ;
734 -> 735 ;
736 [label="gini = 0.0\nsamples = 3\nvalue = [0, 0, 3, 0]", fillcolor="#399de5"] ;
734 -> 736 ;
737 [label="X[0] <= 574.0\ngini = 0.5\nsamples = 83\nvalue = [0, 0, 63, 62]", fillcolor="#fcfdff"] ;
725 -> 737 ;
738 [label="X[1] <= -3.35\ngini = 0.12\nsamples = 42\nvalue = [0, 0, 4, 61]", fillcolor="#da46e7"] ;
737 -> 738 ;
739 [label="X[3] <= 0.39\ngini = 0.08\nsamples = 31\nvalue = [0, 0, 2, 47]", fillcolor="#d941e6"] ;
738 -> 739 ;
740 [label="gini = 0.0\nsamples = 15\nvalue = [0, 0, 0, 25]", fillcolor="#d739e5"] ;
739 -> 740 ;
741 [label="X[4] <= -2.5\ngini = 0.15\nsamples = 16\nvalue = [0, 0, 2, 22]", fillcolor="#db4be7"] ;
739 -> 741 ;
742 [label="X[1] <= -3.61\ngini = 0.35\nsamples = 7\nvalue = [0, 0, 2, 7]", fillcolor="#e272ec"] ;
741 -> 742 ;
743 [label="X[0] <= 521.0\ngini = 0.44\nsamples = 3\nvalue = [0, 0, 1, 2]", fillcolor="#eb9cf2"] ;
742 -> 743 ;
744 [label="gini = 0.0\nsamples = 2\nvalue = [0, 0, 0, 2]", fillcolor="#d739e5"] ;
743 -> 744 ;
745 [label="gini = 0.0\nsamples = 1\nvalue = [0, 0, 1, 0]", fillcolor="#399de5"] ;
743 -> 745 ;
746 [label="X[0] <= 539.0\ngini = 0.28\nsamples = 4\nvalue = [0, 0, 1, 5]", fillcolor="#df61ea"] ;
742 -> 746 ;
747 [label="gini = 0.0\nsamples = 3\nvalue = [0, 0, 0, 5]", fillcolor="#d739e5"] ;
746 -> 747 ;
748 [label="gini = 0.0\nsamples = 1\nvalue = [0, 0, 1, 0]", fillcolor="#399de5"] ;
746 -> 748 ;
749 [label="gini = 0.0\nsamples = 9\nvalue = [0, 0, 0, 15]", fillcolor="#d739e5"] ;
741 -> 749 ;
750 [label="X[0] <= 525.5\ngini = 0.22\nsamples = 11\nvalue = [0, 0, 2, 14]", fillcolor="#dd55e9"] ;
738 -> 750 ;
751 [label="gini = 0.0\nsamples = 10\nvalue = [0, 0, 0, 14]", fillcolor="#d739e5"] ;
750 -> 751 ;
752 [label="gini = 0.0\nsamples = 1\nvalue = [0, 0, 2, 0]", fillcolor="#399de5"] ;
750 -> 752 ;
753 [label="X[0] <= 580.0\ngini = 0.03\nsamples = 41\nvalue = [0, 0, 59, 1]", fillcolor="#3c9fe5"] ;
737 -> 753 ;
754 [label="X[2] <= 0.0\ngini = 0.44\nsamples = 2\nvalue = [0, 0, 2, 1]", fillcolor="#9ccef2"] ;
753 -> 754 ;
755 [label="gini = 0.0\nsamples = 1\nvalue = [0, 0, 0, 1]", fillcolor="#d739e5"] ;
754 -> 755 ;
756 [label="gini = 0.0\nsamples = 1\nvalue = [0, 0, 2, 0]", fillcolor="#399de5"] ;
754 -> 756 ;
757 [label="gini = 0.0\nsamples = 39\nvalue = [0, 0, 57, 0]", fillcolor="#399de5"] ;
753 -> 757 ;
758 [label="X[0] <= 559.0\ngini = 0.46\nsamples = 52\nvalue = [0, 0, 53, 29]", fillcolor="#a5d3f3"] ;
724 -> 758 ;
759 [label="X[1] <= -3.85\ngini = 0.07\nsamples = 20\nvalue = [0, 0, 1, 28]", fillcolor="#d840e6"] ;
758 -> 759 ;
760 [label="X[3] <= 0.39\ngini = 0.44\nsamples = 3\nvalue = [0, 0, 1, 2]", fillcolor="#eb9cf2"] ;
759 -> 760 ;
761 [label="gini = 0.0\nsamples = 1\nvalue = [0, 0, 0, 1]", fillcolor="#d739e5"] ;
760 -> 761 ;
762 [label="X[2] <= 0.0\ngini = 0.5\nsamples = 2\nvalue = [0, 0, 1, 1]", fillcolor="#ffffff"] ;
760 -> 762 ;
763 [label="gini = 0.0\nsamples = 1\nvalue = [0, 0, 1, 0]", fillcolor="#399de5"] ;
762 -> 763 ;
764 [label="gini = 0.0\nsamples = 1\nvalue = [0, 0, 0, 1]", fillcolor="#d739e5"] ;
762 -> 764 ;
765 [label="gini = 0.0\nsamples = 17\nvalue = [0, 0, 0, 26]", fillcolor="#d739e5"] ;
759 -> 765 ;
766 [label="X[0] <= 580.5\ngini = 0.04\nsamples = 32\nvalue = [0, 0, 52, 1]", fillcolor="#3d9fe6"] ;
758 -> 766 ;
767 [label="X[0] <= 576.5\ngini = 0.22\nsamples = 7\nvalue = [0, 0, 7, 1]", fillcolor="#55abe9"] ;
766 -> 767 ;
768 [label="gini = 0.0\nsamples = 6\nvalue = [0, 0, 7, 0]", fillcolor="#399de5"] ;
767 -> 768 ;
769 [label="gini = 0.0\nsamples = 1\nvalue = [0, 0, 0, 1]", fillcolor="#d739e5"] ;
767 -> 769 ;
770 [label="gini = 0.0\nsamples = 25\nvalue = [0, 0, 45, 0]", fillcolor="#399de5"] ;
766 -> 770 ;
771 [label="X[3] <= 0.39\ngini = 0.34\nsamples = 139\nvalue = [0, 49, 191, 2]", fillcolor="#6db7ec"] ;
689 -> 771 ;
772 [label="X[3] <= 0.15\ngini = 0.16\nsamples = 99\nvalue = [0, 13, 154, 2]", fillcolor="#4ca6e8"] ;
771 -> 772 ;
773 [label="gini = 0.0\nsamples = 51\nvalue = [0, 0, 83, 0]", fillcolor="#399de5"] ;
772 -> 773 ;
774 [label="X[4] <= -1.5\ngini = 0.3\nsamples = 48\nvalue = [0, 13, 71, 2]", fillcolor="#62b1ea"] ;
772 -> 774 ;
775 [label="X[0] <= 679.0\ngini = 0.38\nsamples = 35\nvalue = [0, 13, 48, 2]", fillcolor="#74baed"] ;
774 -> 775 ;
776 [label="X[0] <= 412.5\ngini = 0.08\nsamples = 27\nvalue = [0, 0, 48, 2]", fillcolor="#41a1e6"] ;
775 -> 776 ;
777 [label="gini = 0.0\nsamples = 1\nvalue = [0, 0, 0, 2]", fillcolor="#d739e5"] ;
776 -> 777 ;
778 [label="gini = 0.0\nsamples = 26\nvalue = [0, 0, 48, 0]", fillcolor="#399de5"] ;
776 -> 778 ;
779 [label="gini = 0.0\nsamples = 8\nvalue = [0, 13, 0, 0]", fillcolor="#47e539"] ;
775 -> 779 ;
780 [label="gini = 0.0\nsamples = 13\nvalue = [0, 0, 23, 0]", fillcolor="#399de5"] ;
774 -> 780 ;
781 [label="X[1] <= -3.35\ngini = 0.5\nsamples = 40\nvalue = [0, 36, 37, 0]", fillcolor="#fafcfe"] ;
771 -> 781 ;
782 [label="X[1] <= -3.85\ngini = 0.49\nsamples = 31\nvalue = [0, 33, 25, 0]", fillcolor="#d2f9cf"] ;
781 -> 782 ;
783 [label="X[4] <= -1.5\ngini = 0.38\nsamples = 6\nvalue = [0, 3, 9, 0]", fillcolor="#7bbeee"] ;
782 -> 783 ;
784 [label="X[0] <= 579.0\ngini = 0.44\nsamples = 5\nvalue = [0, 3, 6, 0]", fillcolor="#9ccef2"] ;
783 -> 784 ;
785 [label="gini = 0.0\nsamples = 3\nvalue = [0, 0, 6, 0]", fillcolor="#399de5"] ;
784 -> 785 ;
786 [label="gini = 0.0\nsamples = 2\nvalue = [0, 3, 0, 0]", fillcolor="#47e539"] ;
784 -> 786 ;
787 [label="gini = 0.0\nsamples = 1\nvalue = [0, 0, 3, 0]", fillcolor="#399de5"] ;
783 -> 787 ;
788 [label="X[0] <= 571.0\ngini = 0.45\nsamples = 25\nvalue = [0, 30, 16, 0]", fillcolor="#a9f3a3"] ;
782 -> 788 ;
789 [label="gini = 0.0\nsamples = 9\nvalue = [0, 0, 16, 0]", fillcolor="#399de5"] ;
788 -> 789 ;
790 [label="gini = 0.0\nsamples = 16\nvalue = [0, 30, 0, 0]", fillcolor="#47e539"] ;
788 -> 790 ;
791 [label="X[4] <= -1.5\ngini = 0.32\nsamples = 9\nvalue = [0, 3, 12, 0]", fillcolor="#6ab6ec"] ;
781 -> 791 ;
792 [label="X[0] <= 596.0\ngini = 0.22\nsamples = 4\nvalue = [0, 1, 7, 0]", fillcolor="#55abe9"] ;
791 -> 792 ;
793 [label="gini = 0.0\nsamples = 3\nvalue = [0, 0, 7, 0]", fillcolor="#399de5"] ;
792 -> 793 ;
794 [label="gini = 0.0\nsamples = 1\nvalue = [0, 1, 0, 0]", fillcolor="#47e539"] ;
792 -> 794 ;
795 [label="X[0] <= 599.0\ngini = 0.41\nsamples = 5\nvalue = [0, 2, 5, 0]", fillcolor="#88c4ef"] ;
791 -> 795 ;
796 [label="gini = 0.0\nsamples = 3\nvalue = [0, 0, 5, 0]", fillcolor="#399de5"] ;
795 -> 796 ;
797 [label="gini = 0.0\nsamples = 2\nvalue = [0, 2, 0, 0]", fillcolor="#47e539"] ;
795 -> 797 ;
798 [label="X[3] <= 0.15\ngini = 0.52\nsamples = 247\nvalue = [27, 248, 135, 0]", fillcolor="#b3f4ae"] ;
688 -> 798 ;
799 [label="X[2] <= 0.01\ngini = 0.46\nsamples = 84\nvalue = [0, 52, 91, 0]", fillcolor="#aad5f4"] ;
798 -> 799 ;
800 [label="gini = 0.0\nsamples = 46\nvalue = [0, 0, 74, 0]", fillcolor="#399de5"] ;
799 -> 800 ;
801 [label="X[4] <= -2.5\ngini = 0.37\nsamples = 38\nvalue = [0, 52, 17, 0]", fillcolor="#83ee7a"] ;
799 -> 801 ;
802 [label="X[0] <= 865.5\ngini = 0.19\nsamples = 19\nvalue = [0, 33, 4, 0]", fillcolor="#5de851"] ;
801 -> 802 ;
803 [label="gini = 0.0\nsamples = 3\nvalue = [0, 0, 4, 0]", fillcolor="#399de5"] ;
802 -> 803 ;
804 [label="gini = 0.0\nsamples = 16\nvalue = [0, 33, 0, 0]", fillcolor="#47e539"] ;
802 -> 804 ;
805 [label="X[0] <= 877.0\ngini = 0.48\nsamples = 19\nvalue = [0, 19, 13, 0]", fillcolor="#c5f7c0"] ;
801 -> 805 ;
806 [label="X[4] <= -1.5\ngini = 0.13\nsamples = 9\nvalue = [0, 1, 13, 0]", fillcolor="#48a5e7"] ;
805 -> 806 ;
807 [label="gini = 0.0\nsamples = 8\nvalue = [0, 0, 13, 0]", fillcolor="#399de5"] ;
806 -> 807 ;
808 [label="gini = 0.0\nsamples = 1\nvalue = [0, 1, 0, 0]", fillcolor="#47e539"] ;
806 -> 808 ;
809 [label="gini = 0.0\nsamples = 10\nvalue = [0, 18, 0, 0]", fillcolor="#47e539"] ;
805 -> 809 ;
810 [label="X[3] <= 0.39\ngini = 0.42\nsamples = 163\nvalue = [27, 196, 44, 0]", fillcolor="#82ed78"] ;
798 -> 810 ;
811 [label="X[2] <= 0.01\ngini = 0.45\nsamples = 71\nvalue = [0, 77, 41, 0]", fillcolor="#a9f3a2"] ;
810 -> 811 ;
812 [label="X[4] <= -1.5\ngini = 0.45\nsamples = 40\nvalue = [0, 22, 41, 0]", fillcolor="#a3d2f3"] ;
811 -> 812 ;
813 [label="X[4] <= -2.5\ngini = 0.36\nsamples = 31\nvalue = [0, 12, 39, 0]", fillcolor="#76bbed"] ;
812 -> 813 ;
814 [label="X[1] <= -3.61\ngini = 0.19\nsamples = 19\nvalue = [0, 3, 26, 0]", fillcolor="#50a8e8"] ;
813 -> 814 ;
815 [label="X[4] <= -3.5\ngini = 0.29\nsamples = 12\nvalue = [0, 3, 14, 0]", fillcolor="#63b2eb"] ;
814 -> 815 ;
816 [label="X[0] <= 907.5\ngini = 0.32\nsamples = 4\nvalue = [0, 1, 4, 0]", fillcolor="#6ab6ec"] ;
815 -> 816 ;
817 [label="gini = 0.0\nsamples = 3\nvalue = [0, 0, 4, 0]", fillcolor="#399de5"] ;
816 -> 817 ;
818 [label="gini = 0.0\nsamples = 1\nvalue = [0, 1, 0, 0]", fillcolor="#47e539"] ;
816 -> 818 ;
819 [label="X[2] <= 0.0\ngini = 0.28\nsamples = 8\nvalue = [0, 2, 10, 0]", fillcolor="#61b1ea"] ;
815 -> 819 ;
820 [label="X[1] <= -3.85\ngini = 0.44\nsamples = 5\nvalue = [0, 2, 4, 0]", fillcolor="#9ccef2"] ;
819 -> 820 ;
821 [label="X[0] <= 958.5\ngini = 0.32\nsamples = 4\nvalue = [0, 1, 4, 0]", fillcolor="#6ab6ec"] ;
820 -> 821 ;
822 [label="gini = 0.0\nsamples = 3\nvalue = [0, 0, 4, 0]", fillcolor="#399de5"] ;
821 -> 822 ;
823 [label="gini = 0.0\nsamples = 1\nvalue = [0, 1, 0, 0]", fillcolor="#47e539"] ;
821 -> 823 ;
824 [label="gini = 0.0\nsamples = 1\nvalue = [0, 1, 0, 0]", fillcolor="#47e539"] ;
820 -> 824 ;
825 [label="gini = 0.0\nsamples = 3\nvalue = [0, 0, 6, 0]", fillcolor="#399de5"] ;
819 -> 825 ;
826 [label="gini = 0.0\nsamples = 7\nvalue = [0, 0, 12, 0]", fillcolor="#399de5"] ;
814 -> 826 ;
827 [label="X[0] <= 941.5\ngini = 0.48\nsamples = 12\nvalue = [0, 9, 13, 0]", fillcolor="#c2e1f7"] ;
813 -> 827 ;
828 [label="gini = 0.0\nsamples = 7\nvalue = [0, 0, 13, 0]", fillcolor="#399de5"] ;
827 -> 828 ;
829 [label="gini = 0.0\nsamples = 5\nvalue = [0, 9, 0, 0]", fillcolor="#47e539"] ;
827 -> 829 ;
830 [label="X[0] <= 882.0\ngini = 0.28\nsamples = 9\nvalue = [0, 10, 2, 0]", fillcolor="#6cea61"] ;
812 -> 830 ;
831 [label="gini = 0.0\nsamples = 2\nvalue = [0, 0, 2, 0]", fillcolor="#399de5"] ;
830 -> 831 ;
832 [label="gini = 0.0\nsamples = 7\nvalue = [0, 10, 0, 0]", fillcolor="#47e539"] ;
830 -> 832 ;
833 [label="gini = 0.0\nsamples = 31\nvalue = [0, 55, 0, 0]", fillcolor="#47e539"] ;
811 -> 833 ;
834 [label="X[0] <= 846.5\ngini = 0.33\nsamples = 92\nvalue = [27, 119, 3, 0]", fillcolor="#74eb6a"] ;
810 -> 834 ;
835 [label="X[2] <= 0.0\ngini = 0.11\nsamples = 29\nvalue = [0, 46, 3, 0]", fillcolor="#53e746"] ;
834 -> 835 ;
836 [label="X[0] <= 791.0\ngini = 0.24\nsamples = 12\nvalue = [0, 18, 3, 0]", fillcolor="#66e95a"] ;
835 -> 836 ;
837 [label="gini = 0.0\nsamples = 2\nvalue = [0, 0, 3, 0]", fillcolor="#399de5"] ;
836 -> 837 ;
838 [label="gini = 0.0\nsamples = 10\nvalue = [0, 18, 0, 0]", fillcolor="#47e539"] ;
836 -> 838 ;
839 [label="gini = 0.0\nsamples = 17\nvalue = [0, 28, 0, 0]", fillcolor="#47e539"] ;
835 -> 839 ;
840 [label="X[4] <= -3.5\ngini = 0.39\nsamples = 63\nvalue = [27, 73, 0, 0]", fillcolor="#8bef82"] ;
834 -> 840 ;
841 [label="X[0] <= 922.5\ngini = 0.49\nsamples = 11\nvalue = [7, 9, 0, 0]", fillcolor="#d6f9d3"] ;
840 -> 841 ;
842 [label="X[2] <= 0.01\ngini = 0.18\nsamples = 7\nvalue = [1, 9, 0, 0]", fillcolor="#5be84f"] ;
841 -> 842 ;
843 [label="gini = 0.0\nsamples = 6\nvalue = [0, 9, 0, 0]", fillcolor="#47e539"] ;
842 -> 843 ;
844 [label="gini = 0.0\nsamples = 1\nvalue = [1, 0, 0, 0]", fillcolor="#e58139"] ;
842 -> 844 ;
845 [label="gini = 0.0\nsamples = 4\nvalue = [6, 0, 0, 0]", fillcolor="#e58139"] ;
841 -> 845 ;
846 [label="X[0] <= 966.0\ngini = 0.36\nsamples = 52\nvalue = [20, 64, 0, 0]", fillcolor="#81ed77"] ;
840 -> 846 ;
847 [label="X[2] <= 0.01\ngini = 0.42\nsamples = 42\nvalue = [20, 46, 0, 0]", fillcolor="#97f08f"] ;
846 -> 847 ;
848 [label="gini = 0.0\nsamples = 27\nvalue = [0, 46, 0, 0]", fillcolor="#47e539"] ;
847 -> 848 ;
849 [label="gini = 0.0\nsamples = 15\nvalue = [20, 0, 0, 0]", fillcolor="#e58139"] ;
847 -> 849 ;
850 [label="gini = 0.0\nsamples = 10\nvalue = [0, 18, 0, 0]", fillcolor="#47e539"] ;
846 -> 850 ;
851 [label="X[5] <= 0.01\ngini = 0.71\nsamples = 1408\nvalue = [416, 865, 616, 319]", fillcolor="#e2fbe0"] ;
591 -> 851 ;
852 [label="X[3] <= 0.65\ngini = 0.7\nsamples = 912\nvalue = [115, 546, 462, 310]", fillcolor="#effdee"] ;
851 -> 852 ;
853 [label="X[0] <= 683.5\ngini = 0.68\nsamples = 430\nvalue = [25, 161, 250, 241]", fillcolor="#fbfdfe"] ;
852 -> 853 ;
854 [label="X[2] <= 0.01\ngini = 0.48\nsamples = 224\nvalue = [0, 34, 77, 234]", fillcolor="#e88bf0"] ;
853 -> 854 ;
855 [label="X[2] <= 0.0\ngini = 0.11\nsamples = 162\nvalue = [0, 0, 14, 230]", fillcolor="#d945e7"] ;
854 -> 855 ;
856 [label="X[0] <= 681.5\ngini = 0.02\nsamples = 78\nvalue = [0, 0, 1, 111]", fillcolor="#d73be5"] ;
855 -> 856 ;
857 [label="gini = 0.0\nsamples = 75\nvalue = [0, 0, 0, 105]", fillcolor="#d739e5"] ;
856 -> 857 ;
858 [label="X[5] <= 0.0\ngini = 0.24\nsamples = 3\nvalue = [0, 0, 1, 6]", fillcolor="#de5ae9"] ;
856 -> 858 ;
859 [label="gini = 0.0\nsamples = 2\nvalue = [0, 0, 0, 6]", fillcolor="#d739e5"] ;
858 -> 859 ;
860 [label="gini = 0.0\nsamples = 1\nvalue = [0, 0, 1, 0]", fillcolor="#399de5"] ;
858 -> 860 ;
861 [label="X[4] <= -1.5\ngini = 0.18\nsamples = 84\nvalue = [0, 0, 13, 119]", fillcolor="#db4fe8"] ;
855 -> 861 ;
862 [label="X[1] <= -3.85\ngini = 0.24\nsamples = 57\nvalue = [0, 0, 13, 81]", fillcolor="#dd59e9"] ;
861 -> 862 ;
863 [label="X[0] <= 591.0\ngini = 0.09\nsamples = 13\nvalue = [0, 0, 1, 19]", fillcolor="#d943e6"] ;
862 -> 863 ;
864 [label="gini = 0.0\nsamples = 12\nvalue = [0, 0, 0, 19]", fillcolor="#d739e5"] ;
863 -> 864 ;
865 [label="gini = 0.0\nsamples = 1\nvalue = [0, 0, 1, 0]", fillcolor="#399de5"] ;
863 -> 865 ;
866 [label="X[0] <= 612.0\ngini = 0.27\nsamples = 44\nvalue = [0, 0, 12, 62]", fillcolor="#df5fea"] ;
862 -> 866 ;
867 [label="gini = 0.0\nsamples = 33\nvalue = [0, 0, 0, 61]", fillcolor="#d739e5"] ;
866 -> 867 ;
868 [label="X[5] <= 0.0\ngini = 0.14\nsamples = 11\nvalue = [0, 0, 12, 1]", fillcolor="#49a5e7"] ;
866 -> 868 ;
869 [label="X[0] <= 654.5\ngini = 0.32\nsamples = 4\nvalue = [0, 0, 4, 1]", fillcolor="#6ab6ec"] ;
868 -> 869 ;
870 [label="gini = 0.0\nsamples = 1\nvalue = [0, 0, 0, 1]", fillcolor="#d739e5"] ;
869 -> 870 ;
871 [label="gini = 0.0\nsamples = 3\nvalue = [0, 0, 4, 0]", fillcolor="#399de5"] ;
869 -> 871 ;
872 [label="gini = 0.0\nsamples = 7\nvalue = [0, 0, 8, 0]", fillcolor="#399de5"] ;
868 -> 872 ;
873 [label="gini = 0.0\nsamples = 27\nvalue = [0, 0, 0, 38]", fillcolor="#d739e5"] ;
861 -> 873 ;
874 [label="X[1] <= -3.35\ngini = 0.5\nsamples = 62\nvalue = [0, 34, 63, 4]", fillcolor="#a9d5f4"] ;
854 -> 874 ;
875 [label="X[0] <= 610.5\ngini = 0.53\nsamples = 50\nvalue = [0, 32, 45, 4]", fillcolor="#cae5f8"] ;
874 -> 875 ;
876 [label="X[0] <= 416.5\ngini = 0.24\nsamples = 30\nvalue = [0, 3, 45, 4]", fillcolor="#56abe9"] ;
875 -> 876 ;
877 [label="gini = 0.0\nsamples = 2\nvalue = [0, 0, 0, 4]", fillcolor="#d739e5"] ;
876 -> 877 ;
878 [label="X[1] <= -3.85\ngini = 0.12\nsamples = 28\nvalue = [0, 3, 45, 0]", fillcolor="#46a4e7"] ;
876 -> 878 ;
879 [label="X[4] <= -1.5\ngini = 0.4\nsamples = 5\nvalue = [0, 3, 8, 0]", fillcolor="#83c2ef"] ;
878 -> 879 ;
880 [label="gini = 0.0\nsamples = 3\nvalue = [0, 0, 5, 0]", fillcolor="#399de5"] ;
879 -> 880 ;
881 [label="X[0] <= 509.5\ngini = 0.5\nsamples = 2\nvalue = [0, 3, 3, 0]", fillcolor="#ffffff"] ;
879 -> 881 ;
882 [label="gini = 0.0\nsamples = 1\nvalue = [0, 0, 3, 0]", fillcolor="#399de5"] ;
881 -> 882 ;
883 [label="gini = 0.0\nsamples = 1\nvalue = [0, 3, 0, 0]", fillcolor="#47e539"] ;
881 -> 883 ;
884 [label="gini = 0.0\nsamples = 23\nvalue = [0, 0, 37, 0]", fillcolor="#399de5"] ;
878 -> 884 ;
885 [label="gini = 0.0\nsamples = 20\nvalue = [0, 29, 0, 0]", fillcolor="#47e539"] ;
875 -> 885 ;
886 [label="X[0] <= 611.5\ngini = 0.18\nsamples = 12\nvalue = [0, 2, 18, 0]", fillcolor="#4fa8e8"] ;
874 -> 886 ;
887 [label="X[4] <= -1.5\ngini = 0.1\nsamples = 11\nvalue = [0, 1, 18, 0]", fillcolor="#44a2e6"] ;
886 -> 887 ;
888 [label="gini = 0.0\nsamples = 8\nvalue = [0, 0, 14, 0]", fillcolor="#399de5"] ;
887 -> 888 ;
889 [label="X[0] <= 576.0\ngini = 0.32\nsamples = 3\nvalue = [0, 1, 4, 0]", fillcolor="#6ab6ec"] ;
887 -> 889 ;
890 [label="gini = 0.0\nsamples = 2\nvalue = [0, 0, 4, 0]", fillcolor="#399de5"] ;
889 -> 890 ;
891 [label="gini = 0.0\nsamples = 1\nvalue = [0, 1, 0, 0]", fillcolor="#47e539"] ;
889 -> 891 ;
892 [label="gini = 0.0\nsamples = 1\nvalue = [0, 1, 0, 0]", fillcolor="#47e539"] ;
886 -> 892 ;
893 [label="X[2] <= 0.01\ngini = 0.58\nsamples = 206\nvalue = [25, 127, 173, 7]", fillcolor="#d3e9f9"] ;
853 -> 893 ;
894 [label="X[0] <= 951.0\ngini = 0.35\nsamples = 132\nvalue = [0, 41, 173, 7]", fillcolor="#6eb7ec"] ;
893 -> 894 ;
895 [label="X[0] <= 899.0\ngini = 0.16\nsamples = 107\nvalue = [0, 8, 160, 7]", fillcolor="#4ba6e7"] ;
894 -> 895 ;
896 [label="X[0] <= 714.0\ngini = 0.1\nsamples = 84\nvalue = [0, 0, 130, 7]", fillcolor="#44a2e6"] ;
895 -> 896 ;
897 [label="X[4] <= -1.5\ngini = 0.38\nsamples = 15\nvalue = [0, 0, 15, 5]", fillcolor="#7bbeee"] ;
896 -> 897 ;
898 [label="X[1] <= -3.35\ngini = 0.12\nsamples = 11\nvalue = [0, 0, 15, 1]", fillcolor="#46a4e7"] ;
897 -> 898 ;
899 [label="gini = 0.0\nsamples = 8\nvalue = [0, 0, 12, 0]", fillcolor="#399de5"] ;
898 -> 899 ;
900 [label="X[5] <= 0.0\ngini = 0.38\nsamples = 3\nvalue = [0, 0, 3, 1]", fillcolor="#7bbeee"] ;
898 -> 900 ;
901 [label="gini = 0.0\nsamples = 1\nvalue = [0, 0, 0, 1]", fillcolor="#d739e5"] ;
900 -> 901 ;
902 [label="gini = 0.0\nsamples = 2\nvalue = [0, 0, 3, 0]", fillcolor="#399de5"] ;
900 -> 902 ;
903 [label="gini = 0.0\nsamples = 4\nvalue = [0, 0, 0, 4]", fillcolor="#d739e5"] ;
897 -> 903 ;
904 [label="X[1] <= -3.35\ngini = 0.03\nsamples = 69\nvalue = [0, 0, 115, 2]", fillcolor="#3c9fe5"] ;
896 -> 904 ;
905 [label="gini = 0.0\nsamples = 53\nvalue = [0, 0, 88, 0]", fillcolor="#399de5"] ;
904 -> 905 ;
906 [label="X[5] <= 0.0\ngini = 0.13\nsamples = 16\nvalue = [0, 0, 27, 2]", fillcolor="#48a4e7"] ;
904 -> 906 ;
907 [label="X[0] <= 793.0\ngini = 0.44\nsamples = 5\nvalue = [0, 0, 4, 2]", fillcolor="#9ccef2"] ;
906 -> 907 ;
908 [label="gini = 0.0\nsamples = 1\nvalue = [0, 0, 0, 2]", fillcolor="#d739e5"] ;
907 -> 908 ;
909 [label="gini = 0.0\nsamples = 4\nvalue = [0, 0, 4, 0]", fillcolor="#399de5"] ;
907 -> 909 ;
910 [label="gini = 0.0\nsamples = 11\nvalue = [0, 0, 23, 0]", fillcolor="#399de5"] ;
906 -> 910 ;
911 [label="X[2] <= 0.0\ngini = 0.33\nsamples = 23\nvalue = [0, 8, 30, 0]", fillcolor="#6eb7ec"] ;
895 -> 911 ;
912 [label="gini = 0.0\nsamples = 13\nvalue = [0, 0, 24, 0]", fillcolor="#399de5"] ;
911 -> 912 ;
913 [label="X[0] <= 905.5\ngini = 0.49\nsamples = 10\nvalue = [0, 8, 6, 0]", fillcolor="#d1f8ce"] ;
911 -> 913 ;
914 [label="gini = 0.0\nsamples = 2\nvalue = [0, 4, 0, 0]", fillcolor="#47e539"] ;
913 -> 914 ;
915 [label="X[5] <= 0.0\ngini = 0.48\nsamples = 8\nvalue = [0, 4, 6, 0]", fillcolor="#bddef6"] ;
913 -> 915 ;
916 [label="gini = 0.0\nsamples = 4\nvalue = [0, 0, 5, 0]", fillcolor="#399de5"] ;
915 -> 916 ;
917 [label="X[0] <= 938.0\ngini = 0.32\nsamples = 4\nvalue = [0, 4, 1, 0]", fillcolor="#75ec6a"] ;
915 -> 917 ;
918 [label="X[4] <= -2.5\ngini = 0.5\nsamples = 2\nvalue = [0, 1, 1, 0]", fillcolor="#ffffff"] ;
917 -> 918 ;
919 [label="gini = 0.0\nsamples = 1\nvalue = [0, 1, 0, 0]", fillcolor="#47e539"] ;
918 -> 919 ;
920 [label="gini = 0.0\nsamples = 1\nvalue = [0, 0, 1, 0]", fillcolor="#399de5"] ;
918 -> 920 ;
921 [label="gini = 0.0\nsamples = 2\nvalue = [0, 3, 0, 0]", fillcolor="#47e539"] ;
917 -> 921 ;
922 [label="X[4] <= -1.5\ngini = 0.41\nsamples = 25\nvalue = [0, 33, 13, 0]", fillcolor="#8fef87"] ;
894 -> 922 ;
923 [label="X[0] <= 992.5\ngini = 0.19\nsamples = 20\nvalue = [0, 33, 4, 0]", fillcolor="#5de851"] ;
922 -> 923 ;
924 [label="X[1] <= -3.46\ngini = 0.06\nsamples = 18\nvalue = [0, 32, 1, 0]", fillcolor="#4de63f"] ;
923 -> 924 ;
925 [label="gini = 0.0\nsamples = 14\nvalue = [0, 27, 0, 0]", fillcolor="#47e539"] ;
924 -> 925 ;
926 [label="X[5] <= 0.0\ngini = 0.28\nsamples = 4\nvalue = [0, 5, 1, 0]", fillcolor="#6cea61"] ;
924 -> 926 ;
927 [label="gini = 0.0\nsamples = 1\nvalue = [0, 0, 1, 0]", fillcolor="#399de5"] ;
926 -> 927 ;
928 [label="gini = 0.0\nsamples = 3\nvalue = [0, 5, 0, 0]", fillcolor="#47e539"] ;
926 -> 928 ;
929 [label="X[5] <= 0.0\ngini = 0.38\nsamples = 2\nvalue = [0, 1, 3, 0]", fillcolor="#7bbeee"] ;
923 -> 929 ;
930 [label="gini = 0.0\nsamples = 1\nvalue = [0, 0, 3, 0]", fillcolor="#399de5"] ;
929 -> 930 ;
931 [label="gini = 0.0\nsamples = 1\nvalue = [0, 1, 0, 0]", fillcolor="#47e539"] ;
929 -> 931 ;
932 [label="gini = 0.0\nsamples = 5\nvalue = [0, 0, 9, 0]", fillcolor="#399de5"] ;
922 -> 932 ;
933 [label="X[1] <= -3.35\ngini = 0.35\nsamples = 74\nvalue = [25, 86, 0, 0]", fillcolor="#7ced73"] ;
893 -> 933 ;
934 [label="X[1] <= -3.61\ngini = 0.37\nsamples = 58\nvalue = [21, 65, 0, 0]", fillcolor="#82ed79"] ;
933 -> 934 ;
935 [label="X[4] <= -1.5\ngini = 0.34\nsamples = 33\nvalue = [11, 40, 0, 0]", fillcolor="#7aec6f"] ;
934 -> 935 ;
936 [label="X[4] <= -2.5\ngini = 0.39\nsamples = 26\nvalue = [10, 27, 0, 0]", fillcolor="#8bef82"] ;
935 -> 936 ;
937 [label="X[0] <= 901.0\ngini = 0.33\nsamples = 16\nvalue = [5, 19, 0, 0]", fillcolor="#77ec6d"] ;
936 -> 937 ;
938 [label="X[0] <= 851.0\ngini = 0.09\nsamples = 13\nvalue = [1, 19, 0, 0]", fillcolor="#51e643"] ;
937 -> 938 ;
939 [label="gini = 0.0\nsamples = 11\nvalue = [0, 17, 0, 0]", fillcolor="#47e539"] ;
938 -> 939 ;
940 [label="X[0] <= 888.0\ngini = 0.44\nsamples = 2\nvalue = [1, 2, 0, 0]", fillcolor="#a3f29c"] ;
938 -> 940 ;
941 [label="gini = 0.0\nsamples = 1\nvalue = [1, 0, 0, 0]", fillcolor="#e58139"] ;
940 -> 941 ;
942 [label="gini = 0.0\nsamples = 1\nvalue = [0, 2, 0, 0]", fillcolor="#47e539"] ;
940 -> 942 ;
943 [label="gini = 0.0\nsamples = 3\nvalue = [4, 0, 0, 0]", fillcolor="#e58139"] ;
937 -> 943 ;
944 [label="X[5] <= 0.0\ngini = 0.47\nsamples = 10\nvalue = [5, 8, 0, 0]", fillcolor="#baf5b5"] ;
936 -> 944 ;
945 [label="X[1] <= -3.85\ngini = 0.38\nsamples = 6\nvalue = [2, 6, 0, 0]", fillcolor="#84ee7b"] ;
944 -> 945 ;
946 [label="X[0] <= 893.5\ngini = 0.44\nsamples = 2\nvalue = [2, 1, 0, 0]", fillcolor="#f2c09c"] ;
945 -> 946 ;
947 [label="gini = 0.0\nsamples = 1\nvalue = [0, 1, 0, 0]", fillcolor="#47e539"] ;
946 -> 947 ;
948 [label="gini = 0.0\nsamples = 1\nvalue = [2, 0, 0, 0]", fillcolor="#e58139"] ;
946 -> 948 ;
949 [label="gini = 0.0\nsamples = 4\nvalue = [0, 5, 0, 0]", fillcolor="#47e539"] ;
945 -> 949 ;
950 [label="X[0] <= 874.0\ngini = 0.48\nsamples = 4\nvalue = [3, 2, 0, 0]", fillcolor="#f6d5bd"] ;
944 -> 950 ;
951 [label="gini = 0.0\nsamples = 2\nvalue = [0, 2, 0, 0]", fillcolor="#47e539"] ;
950 -> 951 ;
952 [label="gini = 0.0\nsamples = 2\nvalue = [3, 0, 0, 0]", fillcolor="#e58139"] ;
950 -> 952 ;
